{"id": "global0", "data": {"conv1.weight": [[[[0.0267031192779541, 0.08572804927825928, 0.0691334530711174, 0.02932889573276043, 0.026887942105531693], [-0.14421892166137695, 0.12602083384990692, 0.026992321014404297, -0.05262944847345352, 0.034424662590026855], [0.04436967521905899, 0.13279719650745392, -0.1486205905675888, 0.14499306678771973, 0.01565878465771675], [-0.0833747610449791, 0.09504260867834091, -0.007038307376205921, -0.07588334381580353, 0.17777924239635468], [0.19898799061775208, -0.06093337759375572, 0.15535080432891846, -0.008327746763825417, -0.15486164391040802]]], [[[0.1197681650519371, 0.0649237185716629, 0.02788395993411541, -0.1680174320936203, 0.06394088268280029], [0.09972681850194931, 0.12022991478443146, -0.15601341426372528, 0.039484500885009766, -0.0712825283408165], [0.19141705334186554, -0.04259371757507324, 0.1376788467168808, 0.1679830402135849, 0.1814868301153183], [0.17951443791389465, -0.14662884175777435, -0.058911897242069244, -0.08096609264612198, 0.10309653729200363], [-0.025698184967041016, -0.12886857986450195, 0.06751542538404465, 0.07829892635345459, -0.06804921478033066]]], [[[0.04162159189581871, -0.06651880592107773, -0.18648874759674072, 0.09855516254901886, -0.0029022933449596167], [0.018733525648713112, 0.11203651875257492, -0.07807721942663193, -0.18968670070171356, 0.0703890323638916], [-0.07625102996826172, 0.16840989887714386, 0.12708072364330292, -0.18852339684963226, -0.1762479841709137], [0.1443452388048172, 0.0706595927476883, 0.1113576665520668, -0.02680215798318386, 0.1281670778989792], [-0.17224405705928802, 0.18171416223049164, 0.19322656095027924, 0.12009649723768234, -0.0741192102432251]]], [[[-0.08123864978551865, 0.0746622309088707, -0.11949262768030167, 0.11706562340259552, 0.16622093319892883], [0.08413185924291611, -0.11556416004896164, -0.06285016983747482, -0.02501673810184002, 0.18551664054393768], [-0.07159536331892014, -0.072919562458992, -0.06749463081359863, 0.04707377031445503, -0.023679090663790703], [-0.09083928912878036, -0.16528348624706268, -0.02510836161673069, 0.06523499637842178, -0.06477482616901398], [0.10237343609333038, 0.005192446988075972, 0.04143493250012398, -0.10159244388341904, -0.023949289694428444]]], [[[-0.09893887490034103, -0.14193296432495117, 0.18017072975635529, -0.17089800536632538, 0.05571608617901802], [0.11087777465581894, 0.04609069973230362, -0.042156290262937546, 0.07676708698272705, 0.19599555432796478], [-0.1019333153963089, -0.10632979869842529, 0.16259680688381195, 0.18803606927394867, -0.16932833194732666], [0.10234846919775009, 0.12304437160491943, -0.05036761984229088, 0.10704191029071808, 0.0971304401755333], [0.18257668614387512, -0.10931771248579025, 0.10469057410955429, -0.14182355999946594, 0.04901771619915962]]], [[[0.07760775089263916, 0.034751009196043015, 0.05592324957251549, -0.1973510980606079, -0.1859670728445053], [-0.15418915450572968, -0.14271180331707, 0.11788766831159592, -0.16851142048835754, 0.11603615432977676], [-0.04735357686877251, -0.0403684638440609, -0.15422062575817108, 0.06969127804040909, -0.17866265773773193], [-0.035875774919986725, -0.19258926808834076, 0.105107881128788, 8.42332883621566e-05, 0.06137433275580406], [0.12833455204963684, 0.05280010774731636, -0.11962168663740158, -0.12347383797168732, -0.012774682603776455]]]], "conv1.bias": [-0.06780993938446045, -0.06351935863494873, 0.14730675518512726, 0.0031300305854529142, 0.047040391713380814, -0.19006066024303436], "conv2.weight": [[[[0.03384610265493393, 0.07818128168582916, -0.06301894783973694, 0.048309288918972015, 0.04101341590285301], [-0.003135750535875559, -0.0696001946926117, 0.05107775703072548, 0.03773127496242523, -0.06423319876194], [-0.06291244924068451, 0.06820447742938995, -0.06231583282351494, -0.06162898615002632, -0.059018030762672424], [-0.07490099966526031, 0.01163660828024149, -0.0519234836101532, 0.011419329792261124, 0.056019607931375504], [0.03743930160999298, 0.012376375496387482, 0.04848683625459671, -0.07060465961694717, -0.002524064853787422]], [[0.0661371722817421, 0.045218221843242645, 0.08036399632692337, 0.07238511741161346, 0.029135826975107193], [-0.011081989854574203, -0.06064111366868019, 0.058423612266778946, 0.008929555304348469, 0.01245204359292984], [0.04818616062402725, -0.0333654060959816, 0.06993487477302551, 0.06805045157670975, -0.04152967408299446], [0.07081759721040726, -0.03938731551170349, -0.07879138737916946, 0.07828507572412491, 0.039853163063526154], [0.02547110617160797, -0.02435123920440674, 0.030829768627882004, 0.023473190143704414, -0.02382609248161316]], [[0.0754527747631073, 0.010199140757322311, -0.02063213661313057, 0.03992895036935806, -0.02112635038793087], [-0.03050176426768303, 0.0729578509926796, -0.02165379375219345, -0.0794622078537941, -0.07892493158578873], [-0.06512505561113358, -0.02620522677898407, -0.04717211425304413, 0.07239838689565659, 0.02676808089017868], [-0.05905783176422119, -0.06634139269590378, 0.00779594574123621, 0.0742310881614685, 0.05218696594238281], [-0.014423124492168427, -0.043542228639125824, 0.04604985564947128, 0.03061583824455738, 0.06460212916135788]], [[-0.04878243803977966, 0.03897964209318161, -0.04363592341542244, -0.068886898458004, -0.07272336632013321], [-0.07182914763689041, -0.04245458170771599, -0.015009396709501743, -0.07335865497589111, 0.005197741556912661], [-0.05916306748986244, -0.08005775511264801, -0.002645771251991391, -0.0005709708784706891, -0.0378931425511837], [-0.05661977082490921, 0.0795423686504364, -0.006196670699864626, -0.06678563356399536, -0.05966746434569359], [-0.04509351775050163, -0.027044635266065598, 0.05420743674039841, -0.0014332428108900785, 0.03477165102958679]], [[0.06916093081235886, -0.021885624155402184, -0.008595884777605534, 0.040668074041604996, -0.07057120651006699], [-0.07657276839017868, 0.047758620232343674, -0.07123222202062607, -0.0533195436000824, -0.007162272464483976], [0.046569209545850754, 0.07725566625595093, -0.032931648194789886, -0.05341969057917595, 0.07076223939657211], [-0.05471070855855942, -0.011109895072877407, 0.0773693397641182, -0.013167048804461956, 0.022836314514279366], [0.06929094344377518, -0.04805577173829079, -0.02148103527724743, -0.024317385628819466, 0.05105099081993103]], [[0.016159163787961006, -0.06343944370746613, 0.021892474964261055, 0.07301837205886841, 0.0075378939509391785], [0.024037813767790794, 0.02547084353864193, -0.039530783891677856, -0.013298800215125084, -0.07850418984889984], [0.026449039578437805, -0.06569325178861618, -0.014990746974945068, -0.009568232111632824, 0.0804954245686531], [0.024560537189245224, 0.03760611265897751, 0.014992616139352322, -0.006078575272113085, 0.06305190920829773], [-0.009264257736504078, 0.03680059686303139, -0.01829359121620655, 0.06255947798490524, -0.025395359843969345]]], [[[-0.02199067547917366, -0.04690374806523323, 0.02462848462164402, 0.0075721750035882, 0.05588662251830101], [-0.030106402933597565, 0.04317265376448631, 0.030225394293665886, -0.05335504189133644, -0.018541937693953514], [-0.006864293944090605, 0.07614873349666595, -0.07899357378482819, 0.00783458724617958, 0.04956446960568428], [-0.030053628608584404, 0.04777848720550537, -0.031594086438417435, 0.07142617553472519, -0.01463176030665636], [-0.0633309856057167, 0.045027486979961395, 0.055952418595552444, -0.0627131387591362, 0.07866358011960983]], [[-0.04025822877883911, -0.052312370389699936, -0.012606200762093067, 0.04985718056559563, 0.018300054594874382], [-0.053244102746248245, -0.01129694189876318, -0.025955254212021828, -0.0666375681757927, -0.006859505083411932], [-0.011275012977421284, 0.028688499704003334, -0.019054509699344635, 0.08003651350736618, -0.0026483505498617887], [0.028735540807247162, -0.008394365198910236, -0.021273957565426826, -0.06013920158147812, -0.056589994579553604], [-0.042585574090480804, -0.01881546713411808, 0.009002352133393288, 0.024496208876371384, 0.0751892477273941]], [[0.06496185064315796, 0.06945782899856567, 0.05089113116264343, -0.06213377043604851, -0.08120737224817276], [-0.011857877485454082, -0.022808348760008812, -0.031070709228515625, 0.058240633457899094, 0.05976996570825577], [-0.001755175064317882, 0.060818348079919815, -0.01196080818772316, 0.02569686248898506, 0.016271360218524933], [-0.005376475863158703, -0.023193450644612312, -0.020556528121232986, 0.0019568316638469696, 0.010711205191910267], [0.04027649015188217, -0.045848384499549866, -0.005432657431811094, 0.006284310016781092, 0.02321465127170086]], [[0.06571529060602188, 0.0149563979357481, -0.03125224635004997, 0.06287437677383423, 0.07467088103294373], [0.08110962063074112, -0.06568558514118195, 0.06847798824310303, -0.019917597994208336, 0.033466409891843796], [-0.0216485857963562, 0.00705215847119689, 0.05933430790901184, -0.037453483790159225, 0.07903899997472763], [0.0019710715860128403, 0.0748923197388649, 0.07814329862594604, -0.041797976940870285, 0.04669445753097534], [0.046617865562438965, -0.07613646239042282, 0.009145413525402546, 0.02289555035531521, -0.020439211279153824]], [[0.03342824429273605, -0.02733364887535572, -0.02590896189212799, 0.07278026640415192, 0.06494986265897751], [0.07536780089139938, 0.03767244517803192, -0.05625176057219505, 0.0028521970380097628, -0.023806411772966385], [0.022708777338266373, -0.034062836319208145, -0.03722979873418808, 0.014744443818926811, 0.04886738210916519], [-0.023703597486019135, -0.04634155333042145, 0.051623404026031494, 0.0654650628566742, -0.010361221618950367], [-0.004575709346681833, -0.0012609811965376139, 0.026124654337763786, -0.030613260343670845, 0.04972595348954201]], [[0.0814695730805397, 0.05678378790616989, -0.0027661831118166447, 0.06769873201847076, 0.03150803968310356], [0.01917475461959839, -0.06299959123134613, -0.06840407103300095, -0.017651770263910294, 0.0720861628651619], [0.05913883075118065, 0.07428564131259918, 0.05068564787507057, 0.01097576878964901, -0.04762550815939903], [0.058693092316389084, 0.07271721214056015, -0.06852555274963379, 0.04578155279159546, -0.04142383486032486], [0.07757900655269623, 0.06163315102458, 0.04488637298345566, -0.010166670195758343, -0.02927246503531933]]], [[[0.02225310727953911, -0.06673652678728104, -0.03740934282541275, -0.08053439855575562, 0.007809874136000872], [-0.06852264702320099, -0.07629155367612839, -0.04333886876702309, 2.965766361739952e-05, 0.03500024974346161], [-0.003098695306107402, -0.022216929122805595, 0.019764842465519905, -0.06982934474945068, 0.01255838107317686], [-0.027862902730703354, 0.011414248496294022, -0.010248382575809956, 0.01677391491830349, -0.05631246790289879], [-0.004418427590280771, 0.03685716539621353, 0.017977869138121605, 0.05782195180654526, 0.06284535676240921]], [[0.02462194487452507, 0.01223570853471756, 0.027729341760277748, 0.027524853125214577, 0.0752461850643158], [0.052457574754953384, 0.004991159774363041, -0.07357679307460785, -0.035732775926589966, 0.0021197490859776735], [0.04540971666574478, 0.0023739368189126253, 0.03722917661070824, 0.07845956087112427, -0.043264634907245636], [0.019922591745853424, -0.06536047160625458, 0.05594819411635399, -0.0005707372911274433, -0.05508061870932579], [0.07067174464464188, -0.05029398575425148, 0.05474047362804413, -0.04783415049314499, 0.06077807396650314]], [[-0.02842641808092594, -0.07767966389656067, -0.053296808153390884, -0.04157715290784836, -0.06349049508571625], [-0.05695166811347008, 0.024234652519226074, 0.012089571915566921, 0.012278272770345211, 0.007063410244882107], [0.08068009465932846, -0.032031942158937454, -0.00902960542589426, -0.038702238351106644, -0.07375013083219528], [-0.06311769783496857, -0.0459570474922657, 0.003780889790505171, -0.049601346254348755, 0.001901370706036687], [-0.04819212853908539, 0.07812238484621048, -0.033966757357120514, -0.018692124634981155, 0.07034683227539062]], [[-0.037915684282779694, 0.03559597209095955, 0.028030775487422943, -0.036801550537347794, 0.022515490651130676], [-0.04991956055164337, -0.046215515583753586, 0.024991298094391823, 0.03557100519537926, 0.06274314224720001], [-0.004788179881870747, -0.018521713092923164, 0.050596628338098526, -0.01794438622891903, -0.021087242290377617], [0.059948503971099854, 0.027934618294239044, 0.0651775524020195, -0.042390525341033936, -0.017975609749555588], [-0.016037525609135628, -0.005562821868807077, 0.03282049298286438, -0.0641317218542099, 0.03147676959633827]], [[-0.01794160157442093, -0.031963225454092026, -0.04555283859372139, 0.056589238345623016, -0.028089437633752823], [0.031373701989650726, -0.042204830795526505, -0.03300906717777252, -0.0015990512911230326, -0.057586997747421265], [0.05276508256793022, 0.011999781243503094, 0.08030630648136139, 0.0006925410125404596, 0.07206018269062042], [0.0648530051112175, 0.05103721097111702, 0.015358669683337212, 0.033273495733737946, -0.03603877127170563], [0.023502865806221962, 0.01114885788410902, -0.06271163374185562, 0.060018233954906464, -0.06740732491016388]], [[0.06113013997673988, 0.010958073660731316, -0.021867413073778152, 0.07239746302366257, -0.05938902869820595], [0.06153705343604088, 0.047112587839365005, 0.040483616292476654, 0.06218701973557472, -0.051206763833761215], [-0.060260627418756485, -0.04149296134710312, -0.07534879446029663, 0.025821596384048462, -0.06630738079547882], [0.0531957671046257, -0.0009714710176922381, -0.050934989005327225, 0.035276200622320175, -0.07784358412027359], [-0.026254693046212196, 0.035697802901268005, -0.02930908091366291, 0.06507647037506104, 0.03903286159038544]]], [[[-0.05615263432264328, 0.0402604378759861, -0.07647565752267838, 0.001461508683860302, 0.050743065774440765], [-0.030181884765625, 0.023132111877202988, -0.03034881316125393, -0.05876363068819046, -0.022594964131712914], [0.02380790188908577, 0.07027281820774078, 0.007672545500099659, -0.042507462203502655, -0.01737995631992817], [0.068693146109581, -0.07671403884887695, -0.06678776443004608, 0.043063901364803314, 0.009879399091005325], [-0.06542198359966278, 0.08069740235805511, -0.033424168825149536, 0.06624866276979446, -0.012286867015063763]], [[-0.020701078698039055, 0.05992498993873596, -0.01912769488990307, 0.06469951570034027, -0.03386116772890091], [0.0021894401870667934, -0.015680786222219467, 0.02999941259622574, 0.026702847331762314, -0.008171441033482552], [-0.06333557516336441, 0.06839440017938614, 0.025914452970027924, -0.07635395228862762, -0.0743606761097908], [-0.0012948533985763788, 0.01528132800012827, -0.01736978441476822, -0.029080813750624657, -0.014499745331704617], [-0.049008291214704514, -0.056165874004364014, -0.049078576266765594, -0.03946096822619438, -0.04968055710196495]], [[0.05189831182360649, 0.00889692921191454, 0.08088444918394089, -0.06045589596033096, -0.0092216357588768], [0.00578148290514946, 0.0440693125128746, 0.06944464892148972, 0.03874068707227707, -0.03987018018960953], [0.006734139285981655, 0.05145545303821564, -0.04745339974761009, 0.03957533463835716, -0.07455141842365265], [0.014292210340499878, -0.07035335898399353, 0.06123045086860657, 0.010582588613033295, -0.05367448180913925], [0.01548313070088625, -0.011707574129104614, -0.02583690546452999, -0.06333120167255402, 0.029248306527733803]], [[0.02871480956673622, -0.0794355645775795, -0.029931465163826942, 0.06641612201929092, 0.030015356838703156], [0.027423538267612457, 0.043614547699689865, 0.04897595942020416, -0.027773482725024223, -0.07876838743686676], [-0.038453493267297745, 0.05512947216629982, 0.05163504555821419, 0.027618039399385452, -0.055287715047597885], [-0.08154264837503433, 0.08012107014656067, 0.008259294554591179, -0.042004723101854324, 0.07512423396110535], [-0.04880529269576073, -0.021159658208489418, 0.06579568982124329, 0.03942498192191124, -0.06308948993682861]], [[-0.010860408656299114, 0.0015677097253501415, 0.019698362797498703, -0.05490797758102417, -0.009704547934234142], [0.03887614607810974, 0.034121740609407425, 0.059657398611307144, -0.06470813602209091, -0.06260700523853302], [0.013447633944451809, 0.045301053673028946, -0.07964309304952621, -0.042049895972013474, 0.05482131987810135], [0.001599168055690825, 0.05120576173067093, 0.06685736030340195, 0.02966010756790638, -0.05252921208739281], [0.009306500665843487, 0.003139244858175516, 0.057087354362010956, -0.055364347994327545, -0.01760859228670597]], [[-0.019032403826713562, -0.0007865169900469482, 0.07682371884584427, 0.06384145468473434, 0.021361159160733223], [-0.07321567833423615, -0.0011101232375949621, 0.01220114529132843, 0.05347258225083351, 0.055228762328624725], [-0.0472848005592823, -0.009269348345696926, 0.022678447887301445, 0.06918088346719742, 0.02293895184993744], [-0.03295550495386124, 0.02745874412357807, -0.024666201323270798, -0.05328606069087982, -0.0517456941306591], [-0.01908673532307148, 0.05692834034562111, 0.02389819733798504, -0.006203522905707359, 0.024466268718242645]]], [[[0.03663638234138489, -0.020453957840800285, 0.03524229675531387, -0.04642806574702263, -0.05930784344673157], [0.07029949873685837, 0.06281958520412445, -0.011341161094605923, 0.0007628258899785578, 0.06797187030315399], [0.04303813725709915, 0.0512310191988945, 0.03792913630604744, 0.035052720457315445, 0.03259565308690071], [0.043255407363176346, -0.05803127959370613, 0.04867486655712128, 0.011711866594851017, 0.050152238458395004], [-0.07837153226137161, 0.053556427359580994, -0.04633371904492378, -0.04096398875117302, 0.057421207427978516]], [[0.019418051466345787, 0.043792739510536194, -0.014546242542564869, 0.027878865599632263, -0.004800852388143539], [0.01025204174220562, -0.059072382748126984, -0.05926918238401413, -0.04851534590125084, -0.04107603803277016], [0.0756634846329689, 0.04149247333407402, 0.06719890981912613, -0.05297005921602249, 0.05812244117259979], [-0.057077258825302124, 0.06071450561285019, 0.00713696563616395, 0.031081728637218475, 0.048070140182971954], [-0.01885567419230938, -0.03813731297850609, 0.05077025294303894, 0.017703980207443237, -0.011235767975449562]], [[-0.030583806335926056, -0.044849202036857605, 0.02637697383761406, -0.04393116757273674, 0.03607572242617607], [0.015485593117773533, 0.06184094026684761, 0.05334847420454025, -0.020455095916986465, 0.02050340361893177], [0.013911147601902485, 0.04575594514608383, -0.0015036056283861399, -0.04101884737610817, -0.05830720067024231], [0.002337816171348095, 0.057808343321084976, 0.044802188873291016, -0.06854469329118729, -0.0038374019786715508], [-0.02345702238380909, -0.0056395502761006355, 0.053913213312625885, 0.032897599041461945, -0.07811764627695084]], [[0.060716189444065094, 0.0586925745010376, 0.033072441816329956, 0.051894087344408035, 0.07320791482925415], [0.031388670206069946, -0.0009706728742457926, 0.05159859359264374, 0.005244578700512648, 0.045196179300546646], [0.0565822497010231, 0.02324998378753662, 0.07998030632734299, -0.06041311100125313, -0.06369306892156601], [0.0022969748824834824, 0.06333694607019424, 0.059355586767196655, 0.0369020476937294, 0.057610075920820236], [-0.06071789190173149, 0.04114828258752823, 0.045815639197826385, 0.017863014712929726, 0.027022123336791992]], [[0.0520404689013958, -0.04224594682455063, -0.009046463295817375, 0.05440147966146469, -0.048210807144641876], [-0.05984984710812569, -0.03997597098350525, -0.037945058196783066, -0.05532370135188103, 0.062156420201063156], [-0.035332322120666504, -0.006624073721468449, 0.07554012537002563, -0.060598064213991165, 0.06913632899522781], [-0.07889766991138458, -0.0454246886074543, -0.05345989018678665, -0.04143057018518448, 0.052273962646722794], [0.03296865522861481, -0.011354534886777401, 0.03169695660471916, 0.007812940515577793, 0.07930804789066315]], [[-0.04844078794121742, -0.024485521018505096, -0.0485503263771534, 0.07808410376310349, -0.07549229264259338], [-0.004272377584129572, -0.06874334067106247, -0.04053936153650284, 0.0761554017663002, 0.06610467284917831], [-0.04245840758085251, -0.0760253369808197, 0.02116246148943901, 0.05116241052746773, 0.07038495689630508], [0.008405100554227829, 0.030849479138851166, 0.048081349581480026, 0.037556879222393036, 0.07643454521894455], [-0.07188612222671509, -0.056488633155822754, -0.07084681838750839, -0.02288142777979374, -0.06302992254495621]]], [[[-0.005460397340357304, -0.07992664724588394, -0.07379825413227081, -0.06836185604333878, -0.021285228431224823], [-0.03721544146537781, 0.016507629305124283, 0.07343293726444244, -0.002518020337447524, 0.056633204221725464], [-0.042157284915447235, -0.0692286416888237, -0.04402128979563713, -0.010325178503990173, -0.028483573347330093], [0.03239161893725395, -0.06538297235965729, -0.007737886160612106, -0.06316159665584564, -0.02900213934481144], [0.07356274873018265, 0.027870310470461845, -0.036948397755622864, -0.02862125262618065, 0.01589248888194561]], [[-0.06946218013763428, -0.03681907802820206, -0.011664018034934998, -0.045051101595163345, 0.053391844034194946], [0.0014051912585273385, -0.031235039234161377, 0.06744012981653214, -0.07858923822641373, -0.05141361802816391], [-0.07680647075176239, -0.00828771572560072, -0.02332892082631588, 0.02602333016693592, -0.07347660511732101], [0.0061735049821436405, 0.08151810616254807, 0.035697635263204575, -0.016221554949879646, 0.00660286471247673], [0.03373430296778679, -0.039556317031383514, -0.06845161318778992, 0.017638221383094788, 0.007975448854267597]], [[-0.05138964578509331, -0.07884912937879562, -0.05288626253604889, 0.007017458789050579, -0.018414800986647606], [-0.05345628783106804, 0.031982406973838806, -0.04734249785542488, 0.03276477009057999, -0.060014769434928894], [-0.06409934163093567, 0.024783577769994736, 0.022994617000222206, 0.033792752772569656, 0.04438814893364906], [0.0735141858458519, -0.061139095574617386, 0.013330413959920406, 0.014264830388128757, 0.04636065289378166], [0.001201607403345406, 0.06030641123652458, -0.0348842553794384, 0.05026109889149666, -0.02025935798883438]], [[0.02317647635936737, 0.06445720791816711, -0.05391501635313034, 0.022823777049779892, 0.06548774242401123], [-0.011884800158441067, 0.072702556848526, 0.07855928689241409, 0.04238072410225868, 0.002192700980231166], [-0.08093971759080887, 0.025754202157258987, 0.05157013237476349, 0.02868274785578251, -0.0462685152888298], [-0.04826522618532181, 0.023454705253243446, -0.031094254925847054, -0.052620939910411835, -0.052611030638217926], [0.06250226497650146, 0.04657025262713432, -0.050221726298332214, -0.03625455126166344, -0.04924513399600983]], [[0.013229848816990852, 0.031855203211307526, -0.043913811445236206, -0.031108183786273003, 0.04233667999505997], [-0.015242306515574455, 0.045149076730012894, 0.03369688615202904, -0.016885489225387573, 0.039642028510570526], [-0.016173675656318665, 0.023400723934173584, -0.05145697295665741, -0.0032186205498874187, -0.048517271876335144], [-0.06800013780593872, -0.061455730348825455, -0.07032796740531921, -0.08146309107542038, 0.06112521514296532], [-0.03493684530258179, -0.009832999669015408, 0.07635144889354706, -0.02972210943698883, 0.018557637929916382]], [[-0.038756102323532104, 0.07983151078224182, -0.037978142499923706, -0.023144755512475967, 0.0629003643989563], [-0.07412251085042953, -0.01702757738530636, -0.02413150854408741, 0.07399396598339081, -0.050404731184244156], [-0.04436330124735832, 0.002285800874233246, -0.048070479184389114, 0.050902146846055984, -0.013557348400354385], [-0.05393073335289955, 0.03727946802973747, 0.035446591675281525, 0.0028561975341290236, -0.042418088763952255], [-0.029309695586562157, -0.04607495665550232, -0.0072169252671301365, -0.07428518682718277, 0.07864083349704742]]], [[[-0.03801974281668663, -0.004962592385709286, -0.01989036425948143, 0.05394137278199196, 0.008665050379931927], [0.01601243205368519, 0.04015880450606346, -0.05615183711051941, -0.051769908517599106, 0.0008664184133522213], [0.0602647140622139, -0.05828176811337471, -0.009653827175498009, 0.012295257300138474, 0.036394987255334854], [-0.024795714765787125, -0.03982715681195259, -0.07350704073905945, 0.05922286957502365, -0.03778962790966034], [0.01801307499408722, -0.042213309556245804, 0.06868268549442291, 0.07569918036460876, -0.0034475403372198343]], [[-0.04660628363490105, 0.03711963817477226, -0.057537104934453964, 0.004767505917698145, 0.07101217657327652], [0.08069289475679398, -0.08110690116882324, 0.07205203175544739, 0.04998227581381798, -0.012805812992155552], [0.0049694739282131195, -0.010892538353800774, 0.006705785635858774, 0.06931468844413757, -0.05881597474217415], [0.014499921351671219, 0.07676966488361359, 0.05707193538546562, -0.05464813485741615, 0.06584952026605606], [-0.07184086740016937, 0.0692371129989624, 0.055222053080797195, -0.0034266330767422915, -0.03977586328983307]], [[-0.03772919997572899, -0.022296421229839325, 0.06407405436038971, 0.015140378847718239, 0.002731950720772147], [-0.02986815758049488, 0.03572075441479683, 0.03569335490465164, -0.04546027258038521, -0.05758025124669075], [-0.05933118239045143, 0.05776877701282501, 0.06530585139989853, 0.0375763475894928, 0.056856974959373474], [-0.06441041082143784, 0.0453648567199707, 0.031207308173179626, -0.021181626245379448, 0.06248828023672104], [-0.02643297053873539, -0.002135128015652299, 0.03298937529325485, -0.04468029737472534, -0.016434891149401665]], [[-0.07422859966754913, 0.022094404324889183, 0.047701768577098846, 0.016342559829354286, 0.0635097473859787], [-0.06356818228960037, -0.03573313355445862, -0.033153608441352844, 0.008530613034963608, 0.040384989231824875], [-0.06136500462889671, -0.017335930839180946, 0.036273978650569916, -0.038286663591861725, 0.006371443625539541], [-0.06618864834308624, -7.413929415633902e-05, 0.05986225605010986, -0.004167704842984676, -0.07930415868759155], [-0.01764906384050846, 0.06419852375984192, -0.07579757273197174, 0.07789954543113708, 0.011035911738872528]], [[0.006508187856525183, 0.02771655097603798, 0.07408755272626877, -0.022858748212456703, -0.04458291456103325], [0.011582246981561184, -0.012346290051937103, 0.012347604148089886, 0.07541076838970184, -0.023501688614487648], [-0.06969432532787323, 0.08069831132888794, 0.06435710936784744, 0.0550294890999794, -0.010719625279307365], [0.01579418033361435, 0.025546208024024963, 0.05618605017662048, -0.014870169572532177, -0.06421878188848495], [-0.011192901991307735, -0.00433936296030879, -0.03453078866004944, 0.044375866651535034, 0.07553819566965103]], [[0.07440612465143204, -0.06058482453227043, 0.05564337596297264, 0.041063472628593445, 0.057335712015628815], [0.05323261767625809, -0.01715267077088356, 0.04732007160782814, 0.021417057141661644, -0.07050414383411407], [0.005640504416078329, 0.03217782452702522, 0.013292268849909306, -0.03321593254804611, 0.03898385539650917], [-0.025062760338187218, -0.022968580946326256, 0.04000087082386017, -0.07874565571546555, -0.06743883341550827], [-0.044957417994737625, 0.0658147856593132, -0.049207817763090134, -0.0352720245718956, -0.018840208649635315]]], [[[-0.03891116753220558, -0.0208074152469635, -0.08157185465097427, -0.01983778551220894, 0.07709144055843353], [-0.05180932208895683, 0.06657673418521881, 0.04897042736411095, -0.01189510803669691, -0.0547347217798233], [-0.042672425508499146, -0.020601827651262283, 0.004840506240725517, 0.014636208303272724, -0.07818277180194855], [-0.05534427613019943, -0.06745760142803192, 0.014988809823989868, -0.015973003581166267, 0.06833058595657349], [-0.04629939794540405, -0.05342281609773636, 0.024835066869854927, 0.045611269772052765, 0.08115066587924957]], [[-0.05998668819665909, -0.058712996542453766, -0.028159266337752342, -0.030493130907416344, 0.020932169631123543], [-0.03929635509848595, 0.0750846266746521, -0.02654419280588627, -0.04442792013287544, 0.05333247035741806], [-0.057992227375507355, 0.045980874449014664, -0.039153870195150375, 0.03217516839504242, -0.07352815568447113], [0.06889459490776062, 0.04730832576751709, 0.02991703897714615, 0.044912662357091904, -0.017243172973394394], [0.05480623245239258, -0.054372239857912064, -0.027346868067979813, 0.0771881565451622, 0.05524870380759239]], [[0.00203194422647357, 0.029845060780644417, 0.032928466796875, -0.07114194333553314, 0.0333075113594532], [-0.06826520711183548, -0.028023669496178627, -0.004359520971775055, -0.041493505239486694, -0.04685738682746887], [-0.05338586866855621, -0.020499879494309425, -0.05065586417913437, -0.0026324072387069464, -0.023860929533839226], [-0.028633495792746544, 0.05304190143942833, 0.01339704915881157, -0.009076841175556183, -0.0770857185125351], [-0.037508729845285416, 0.043011702597141266, -0.04859437793493271, -0.07734820991754532, 0.011152789928019047]], [[-0.0338277742266655, 0.03947897255420685, -0.07753852754831314, 0.06700432300567627, -0.03478582203388214], [-0.017986629158258438, -0.05985183268785477, 0.005260346923023462, 0.0495467446744442, -0.020455319434404373], [0.07311701029539108, 0.02275441773235798, -0.0002503916621208191, -0.02895323932170868, -0.04266496002674103], [0.04921148717403412, -0.017277561128139496, -0.013059825636446476, 0.013293514959514141, -0.06545291841030121], [0.07961417734622955, -0.0544184148311615, 0.06507939845323563, 0.033321313560009, 0.016400901600718498]], [[-0.06625719368457794, -0.03124368190765381, -0.0610092394053936, -0.06110852211713791, 0.04668687656521797], [0.06126915290951729, 0.028339527547359467, 0.01573905162513256, 0.018009530380368233, -0.06632522493600845], [0.07663188874721527, 0.008997066877782345, 0.04118981212377548, -0.04640813171863556, -0.016017960384488106], [0.06580589711666107, 0.023035652935504913, -0.013481340371072292, -0.04970161244273186, 0.007701181340962648], [-0.07796221226453781, -0.00023346528178080916, 0.03847751393914223, -0.04942312836647034, 0.013967514038085938]], [[0.010383044369518757, -0.008769168518483639, -0.002063947496935725, 0.03173799440264702, 0.04088210314512253], [7.689384801778942e-06, -0.036532849073410034, 0.012182009406387806, -0.03379623591899872, -0.042176030576229095], [-0.046723414212465286, -0.07509001344442368, 0.030943376943469048, -0.04847291484475136, -0.00742163835093379], [-0.07648231834173203, 0.020416980609297752, 0.01704312115907669, 0.05310545861721039, -0.07227645069360733], [0.07754996418952942, 0.0019858370069414377, 0.006643346045166254, 0.07061523199081421, -0.0751248225569725]]], [[[0.05705427750945091, 0.045942895114421844, 0.06852605193853378, 0.002395262708887458, 0.07062484323978424], [0.03819345682859421, -0.03369813412427902, -0.05822966620326042, -0.007080414332449436, 0.04176418110728264], [-0.06031366437673569, 0.07360325753688812, 0.032623838633298874, 0.07141093164682388, 0.013739772140979767], [0.04494873434305191, 0.052334826439619064, -0.03501645475625992, 0.01758561283349991, -0.05589006841182709], [-0.006751562003046274, 0.004797397181391716, -0.06306403130292892, 0.03518636152148247, -0.023299945518374443]], [[-0.05406978726387024, -0.05348074808716774, -0.07302159070968628, -0.019764482975006104, -0.07726814597845078], [0.02265782281756401, 0.05869869887828827, -0.04727968946099281, 0.024739349260926247, 0.014035706408321857], [0.020825393497943878, -0.03869062662124634, -0.06707712262868881, 0.056479424238204956, 0.03680936619639397], [0.041804514825344086, 0.07621484994888306, 0.0053639099933207035, -0.06039699912071228, 0.03364785015583038], [0.028431333601474762, 0.021296704187989235, -0.02428491599857807, 0.06941179186105728, -0.05507896468043327]], [[-0.07674040645360947, 0.05236033722758293, 0.0031596459448337555, -0.016155757009983063, 0.07998614758253098], [-0.019518723711371422, 0.05338133126497269, 0.0693054050207138, -0.02231726050376892, -0.08104602247476578], [0.03909090533852577, -0.06856178492307663, 0.03230563551187515, -0.06852316856384277, 0.04390181228518486], [-0.02981182187795639, -0.056086622178554535, 0.05953304469585419, 0.00936833769083023, -0.06715117394924164], [-0.021707210689783096, -0.013551868498325348, 0.062141790986061096, 0.06911647319793701, -0.0075809545814991]], [[-0.006525065749883652, 0.06577056646347046, -0.006434992887079716, 0.0005277059390209615, -0.06288676708936691], [-0.014099479652941227, -0.021023204550147057, -0.031907111406326294, -0.03979707136750221, -0.009607214480638504], [-0.06163524463772774, -0.08084597438573837, 0.07879173010587692, 0.020611900836229324, 0.05197705700993538], [0.028390871360898018, -0.07502857595682144, -0.030805950984358788, 0.07944070547819138, 0.05819527804851532], [-0.05608838424086571, -0.06707202643156052, 0.006706204265356064, 0.06827937066555023, -0.020346608012914658]], [[0.06744135916233063, 0.0013623252743855119, -0.07493102550506592, 0.01884259283542633, 0.04214354231953621], [0.044751524925231934, -0.032108087092638016, -0.05643431842327118, -0.057348188012838364, -0.0687161237001419], [0.0302237868309021, 0.022689105942845345, 0.0408020056784153, 0.03488319367170334, -0.07095931470394135], [-0.06607690453529358, -0.05948818475008011, -0.0020341146737337112, 0.03992650657892227, 0.0060805510729551315], [0.05294351279735565, 0.046699073165655136, 0.03625475615262985, -0.006499242968857288, 0.03348204120993614]], [[-0.08023323118686676, 0.020301727578043938, -0.07478926330804825, 0.027624541893601418, -0.009637203067541122], [-0.045940499752759933, 0.06442861258983612, 0.020562874153256416, 0.05646347254514694, 0.07979830354452133], [0.07581465691328049, 0.03893352299928665, -0.0767153650522232, -0.00792667455971241, -0.07490664720535278], [0.07081049680709839, 0.07609204947948456, -0.06454864144325256, -0.07026933133602142, -0.06578464806079865], [0.06656662374734879, 0.06155326962471008, 0.07759320735931396, 0.04750308021903038, 0.07831066101789474]]], [[[0.051078975200653076, 0.07288246601819992, 0.08144781738519669, -0.020746884867548943, 0.045974574983119965], [0.07076460868120193, 0.0020123703870922327, -0.01810716651380062, -0.005352532025426626, -0.07176726311445236], [0.06671757996082306, -0.05702728033065796, -0.04592113196849823, 0.011222890578210354, 0.04975224658846855], [-0.026129189878702164, 0.0418320894241333, -0.05577622726559639, -0.07305733859539032, -0.030215943232178688], [-0.019430305808782578, 0.051076970994472504, 0.057476114481687546, -0.07360800355672836, -0.025275981053709984]], [[0.039170462638139725, 0.009271937422454357, -0.02308651991188526, -0.003989534918218851, 0.06608235836029053], [0.03596730902791023, 0.004680002573877573, 0.06713259965181351, 0.07778412103652954, 0.027122989296913147], [0.007993445731699467, -0.012762714177370071, 0.04941105842590332, -0.02732180431485176, -0.042860403656959534], [-0.06266096234321594, -0.03138600289821625, -0.003977212589234114, -0.05003810673952103, 0.04426879808306694], [0.016849057748913765, 0.029759611934423447, 0.051595088094472885, 0.0032383697107434273, -0.03747517988085747]], [[-0.048332493752241135, -0.01241698395460844, -0.05162939801812172, 0.022245846688747406, 0.07658229023218155], [0.046937696635723114, -0.024362938478589058, -0.041352011263370514, 0.053172767162323, -0.07764095813035965], [-0.041783180087804794, 0.040404047816991806, 0.04472429305315018, -0.04179549217224121, -0.0680871307849884], [0.049777764827013016, 0.08009155094623566, 0.024438459426164627, -0.046041037887334824, 0.07062589377164841], [-0.07764220982789993, 0.06853505223989487, 0.02490255795419216, 0.05874275043606758, 0.02338436245918274]], [[0.030293935909867287, 0.07851865142583847, -0.02104942686855793, 4.934832759317942e-05, 0.06303341686725616], [-0.06029864400625229, 0.004732329398393631, 0.031870316714048386, -0.039217494428157806, 0.07509452849626541], [-0.05618877708911896, 0.04184315726161003, -0.0060539888218045235, -0.05242294445633888, 0.03569774329662323], [-0.034022968262434006, -0.049786943942308426, 0.05512076988816261, 0.032075684517621994, -0.07640866190195084], [0.07618921250104904, -0.06193702667951584, -0.03726240620017052, -0.019039928913116455, -0.011272452771663666]], [[-0.0802893340587616, 0.02408742532134056, 0.0745714008808136, 0.006194957531988621, 0.03496600687503815], [-0.06395629048347473, -0.07045390456914902, -0.018554620444774628, -0.06420066952705383, -0.02657822147011757], [-0.07014445215463638, -0.022036850452423096, 0.024276360869407654, -0.03021099790930748, 0.022169575095176697], [-0.0011076120426878333, 0.02149665728211403, 0.04029037058353424, 0.05646461993455887, 0.06899687647819519], [-0.06012134999036789, -0.017411842942237854, -0.0032053443137556314, -0.07593941688537598, -0.06558415293693542]], [[-0.06367240846157074, 0.01837967336177826, -0.06988424807786942, 0.021353283897042274, 0.05672174692153931], [0.06482204049825668, -0.004819745197892189, 0.05832306668162346, -0.006061249878257513, -0.054080989211797714], [0.03494426980614662, 0.036180879920721054, 0.0810275599360466, -0.02385113760828972, -0.025400012731552124], [-0.0432632714509964, -0.0029918907675892115, -0.07762914150953293, -0.06986178457736969, -0.07349852472543716], [0.028141366317868233, 0.07343295216560364, -0.04957952722907066, 0.004429795779287815, -0.015428448095917702]]], [[[-0.0431053563952446, -0.040235426276922226, -0.007216575089842081, -0.06128707900643349, -0.07066015899181366], [-0.03995051980018616, -0.000668587104883045, 0.03997879475355148, 0.03710067644715309, 0.03045053593814373], [0.05878922715783119, -0.06276208162307739, -0.0766972228884697, -0.03776470944285393, 0.061129797250032425], [0.06119593605399132, -0.038722142577171326, -0.0790664479136467, -0.03894291818141937, -0.047332074493169785], [-0.008315855637192726, 0.07742156833410263, -0.0698930099606514, 0.0015958198346197605, 0.060864999890327454]], [[-0.07320954650640488, 0.0049217999912798405, -0.0751551166176796, -0.007048800587654114, 0.03829464316368103], [0.06083226948976517, -0.06935608386993408, 0.06527585536241531, 0.007338330149650574, -0.001018522190861404], [0.07289935648441315, 0.036396775394678116, 0.07565157860517502, -0.03569914400577545, -0.06643178313970566], [-0.030488107353448868, -0.04682913050055504, -0.030656592920422554, -0.04043750837445259, -0.05590216442942619], [-0.04648234695196152, -0.008164286613464355, 0.05290946736931801, 0.027582785114645958, -0.057571638375520706]], [[-0.006459501571953297, 0.0755704939365387, -0.006067264825105667, -0.0072218505665659904, 0.0693872794508934], [-0.022424941882491112, 0.010454428382217884, -0.06543514132499695, -0.01408685464411974, 0.03942110016942024], [0.03674609959125519, 0.06410100311040878, -0.07623161375522614, -0.0011759793851524591, -0.033666957169771194], [-0.037317875772714615, -0.07843278348445892, -0.06919688731431961, -0.04032035917043686, 0.06444568186998367], [-0.032383307814598083, 0.016476813703775406, -0.0414477102458477, -0.04606734588742256, -0.013103645294904709]], [[0.051325708627700806, -0.06464561820030212, 0.07564763724803925, 0.0007367306388914585, -0.04569225013256073], [0.02362873964011669, -0.02800556644797325, 0.06681422889232635, 0.07424197345972061, -0.015807759016752243], [-0.04569361358880997, -0.025251928716897964, -0.08059059828519821, -0.005274937022477388, 0.03357822820544243], [0.05160323530435562, -0.04809613525867462, 0.07281342148780823, -0.05311060696840286, -0.06436999142169952], [-0.02429872751235962, 0.00883068423718214, -0.04949091374874115, -0.07642803341150284, -0.032043807208538055]], [[0.07167065143585205, -0.08140583336353302, 0.03624168410897255, 0.01926220953464508, -0.0084048667922616], [0.055509015917778015, -0.07434017956256866, -0.03538135811686516, -0.044490400701761246, 0.0016130284639075398], [0.024710634723305702, -0.05141438916325569, -0.07971318811178207, 0.054218590259552, -0.008325851522386074], [-0.0711994543671608, -0.04491683840751648, 0.07334547489881516, -0.03906060382723808, -0.026161573827266693], [-0.05250715836882591, 0.05075768381357193, -0.04953291267156601, -0.05273126810789108, -0.02526756003499031]], [[0.0685180202126503, 0.059881627559661865, 0.02060857228934765, -0.05220692977309227, -0.05053970590233803], [-0.019561823457479477, -0.009872108697891235, 0.05049917474389076, -0.0014213097747415304, 0.07581821829080582], [-0.0813487321138382, 0.05390927195549011, -0.03248301520943642, 0.046460673213005066, -0.024283036589622498], [-0.0664602518081665, 0.06780041009187698, -0.0743446797132492, 0.016846545040607452, 0.005281692370772362], [0.06142718344926834, 0.06689999997615814, 0.026502864435315132, 0.0618867464363575, 0.025908397510647774]]], [[[-0.004698038566857576, 0.017641618847846985, -0.061732325702905655, 0.027700647711753845, -0.04906817153096199], [0.050492167472839355, 0.023026922717690468, 0.01753060892224312, 0.019085198640823364, 0.037654273211956024], [-0.009229295887053013, 0.05865982174873352, 0.008137286640703678, -0.0700293630361557, 0.06973689049482346], [-0.016855042427778244, -0.013047289103269577, -0.05896000191569328, -0.049048375338315964, 0.021254753693938255], [-0.07466191798448563, 0.03834349662065506, -0.06968318670988083, 0.0019398856675252318, 0.056919366121292114]], [[-0.08068414777517319, 0.05157535895705223, 0.016807787120342255, 0.04412981495261192, 0.008991080336272717], [-0.018506381660699844, -0.040074851363897324, -0.0651240423321724, -0.01585071161389351, 0.03410103917121887], [0.0524144247174263, 0.07075940072536469, 0.0400690995156765, -0.01843506656587124, -0.028524287045001984], [0.015516817569732666, 0.02997835911810398, -0.07773284614086151, 0.015145692974328995, -0.06913319230079651], [-0.007715294603258371, -0.02294456772506237, 0.04976317659020424, -0.02154727093875408, 0.0009110557730309665]], [[0.03175272047519684, 0.0043797274120152, -0.054166555404663086, 0.05221080407500267, 0.025745723396539688], [-0.027274752035737038, 0.04867670312523842, 0.07940919697284698, 0.019373774528503418, -0.08062055706977844], [0.07312839478254318, -0.05971953645348549, -0.0014514443464577198, -0.07812231034040451, 0.0683819130063057], [0.043473776429891586, -0.04692714661359787, -0.053261250257492065, -0.07932604849338531, 0.07829723507165909], [-0.07294650375843048, 0.010143368504941463, 0.038659702986478806, -0.05929214134812355, 0.03313744068145752]], [[0.009502083994448185, -0.03353194519877434, -0.05244462937116623, -0.07781626284122467, 0.0026651795487850904], [-0.04195621982216835, -0.02947530895471573, 0.04363859072327614, 0.05295264348387718, 0.021047821268439293], [0.0186555664986372, 0.07542328536510468, 0.08125516027212143, 0.07282740622758865, 0.012395745143294334], [-0.07857304066419601, -0.07597707211971283, -0.05420585721731186, 0.049184221774339676, -0.03625397011637688], [-0.013079545460641384, 0.06480398029088974, 0.0722128376364708, 0.06160079687833786, 0.01386562455445528]], [[-0.03410722687840462, 0.05358070135116577, -0.057144876569509506, -0.023445449769496918, -0.06038190424442291], [-0.043986208736896515, 0.023702897131443024, -0.06265281140804291, 0.06874532997608185, -0.029897494241595268], [0.004336978308856487, 0.04543071240186691, -0.02567431889474392, 0.00346780545078218, 0.04286486282944679], [0.0616859570145607, -0.04507265239953995, -0.013325664214789867, 0.020740702748298645, -0.07871130108833313], [-0.021540924906730652, 0.050111379474401474, -0.07287972420454025, 0.061931364238262177, -0.015082796104252338]], [[-0.06210993230342865, 0.025313152000308037, -0.01535701472312212, 0.05925833061337471, -0.039657268673181534], [0.03871377184987068, -0.044707950204610825, -0.0037395618855953217, 0.058392029255628586, -0.03487902879714966], [0.08061078935861588, 0.0054594241082668304, 0.04930688440799713, 0.06354258209466934, -0.028516782447695732], [-0.04577158764004707, 0.045059334486722946, 0.06785627454519272, -0.0682365745306015, 0.010284872725605965], [-0.07988914847373962, 0.026002276688814163, -0.07849625498056412, -0.0008958327816799283, -0.07611159235239029]]], [[[-0.023724563419818878, -0.02747851237654686, -0.05198395624756813, 0.0013681945856660604, 0.015098009258508682], [-0.013746809214353561, 0.010908287018537521, -0.07215148210525513, -0.029433786869049072, 0.01736745797097683], [0.010102391242980957, -0.043164048343896866, 0.009219582192599773, 0.03305211663246155, -0.03130095452070236], [0.029109926894307137, -0.02133241668343544, 0.07367998361587524, -0.045035604387521744, 0.042882733047008514], [0.06873206049203873, 0.026045862585306168, -0.05882677808403969, -0.005537622142583132, -0.08023245632648468]], [[-0.05276940390467644, 0.05940048396587372, 0.06976564973592758, -0.011406248435378075, 0.0024012390058487654], [-0.05449637025594711, -0.022152960300445557, -0.053057074546813965, -0.07935559004545212, 0.018125826492905617], [-0.06258580088615417, -0.014685926027595997, 0.013234316371381283, -0.08094801008701324, 0.02069532684981823], [0.04827231913805008, 0.0636080652475357, 0.051892589777708054, -0.008511768653988838, 0.009760369546711445], [0.04577659070491791, 0.03528011217713356, 0.001845189486630261, -0.026745645329356194, -0.06428749859333038]], [[0.05726633220911026, -0.022393258288502693, 0.04963628202676773, -0.038205165416002274, 0.03609316423535347], [0.06123052164912224, 0.053562063723802567, -0.011481954716145992, 0.03083702176809311, 0.023785222321748734], [-0.017710763961076736, 0.0025515130255371332, -0.03003624454140663, 0.009368143044412136, -0.04833746701478958], [0.038618579506874084, -0.07531623542308807, -0.02784324251115322, -0.00509629026055336, 0.00786682404577732], [0.014429811388254166, -0.04398328810930252, 0.00837649405002594, 0.04187575355172157, 0.002553050871938467]], [[-0.031374577432870865, 0.012217682786285877, -0.020452624186873436, -0.0810268372297287, 0.009970610961318016], [0.05666273459792137, -0.06798847764730453, 0.06446927040815353, 0.05999188497662544, 0.030172044411301613], [0.035984061658382416, -0.007820201106369495, 0.05960104241967201, 0.028311068192124367, -0.04371127858757973], [0.03443995490670204, -0.07622072845697403, -0.012445862405002117, -0.017008285969495773, 0.02140195108950138], [0.0466918908059597, -0.042958565056324005, -0.06466439366340637, 0.03376764804124832, -0.0051813796162605286]], [[-0.004619908519089222, -0.0427393801510334, 0.011469709686934948, -0.0627528503537178, -0.0016245138831436634], [0.05031130090355873, -0.009936300106346607, -0.004443072248250246, -0.018345849588513374, -0.0031034841667860746], [-0.0563625767827034, -0.04352918639779091, 0.04050811380147934, -0.07566536217927933, 0.07339873909950256], [-0.036517783999443054, -0.08130300790071487, -0.023233747109770775, -0.03432674705982208, -0.05420321971178055], [0.015101960860192776, 0.005914236418902874, -0.025591878220438957, 0.05738246068358421, -0.04580741375684738]], [[0.044025521725416183, 0.05502329766750336, -0.04427899047732353, -0.02940097451210022, -0.0720919817686081], [-0.011551772244274616, -0.0308271124958992, -0.07767990231513977, 0.01417845580726862, -0.06912381201982498], [-0.02927544340491295, -0.05079573392868042, -0.034060049802064896, -0.05685380846261978, 0.045335471630096436], [-0.018494488671422005, 0.008210763335227966, -0.06015273928642273, 0.038663044571876526, -0.01177310012280941], [-0.02346828393638134, 0.021075434982776642, 0.06208064407110214, -0.032416652888059616, -0.08128202706575394]]], [[[-0.06827951222658157, -0.009822146967053413, 0.047336239367723465, -0.03376970440149307, -0.06131158024072647], [-0.04990989714860916, 0.04128124937415123, 0.01661885343492031, 0.0328262560069561, -0.011522221378982067], [-0.009796393103897572, -0.07749056816101074, -0.07783432304859161, 0.014199908822774887, 0.01550599467009306], [0.050438012927770615, -0.06266521662473679, 0.06954982876777649, 0.07771684229373932, 0.0462336391210556], [0.06996651738882065, 0.04116344451904297, -0.06691593676805496, -0.0497189462184906, -0.032332420349121094]], [[-0.0720091164112091, -0.009151224046945572, -0.009539489634335041, 0.06856902688741684, -0.0045313346199691296], [0.0013212990015745163, -0.0109343146905303, -0.0190136581659317, 0.03446749970316887, 0.0018010387429967523], [0.08000225573778152, 0.02796216495335102, -0.024308159947395325, 0.06660416722297668, -0.04313443973660469], [-0.020679352805018425, 0.04166758805513382, -0.0584828220307827, -0.0643114447593689, 0.07184918224811554], [-0.04880062863230705, -0.0071344152092933655, -0.020965583622455597, 0.047564662992954254, 0.04309093952178955]], [[0.024204887449741364, 0.050419196486473083, 0.029476914554834366, -0.033397529274225235, -0.02559191733598709], [-0.05767276883125305, -0.05233194679021835, -0.03776266425848007, 0.058019597083330154, -0.0010110567091032863], [0.05366062372922897, -0.03533250838518143, 0.05960286408662796, -0.032419513911008835, 0.009102235548198223], [0.022738872095942497, -0.024040812626481056, 0.0014840220101177692, 0.07748910039663315, -0.04754848778247833], [-0.06965160369873047, 0.020915428176522255, -0.06681469827890396, -0.012411552481353283, -0.06830351799726486]], [[-0.07924631237983704, -0.027421124279499054, -0.05406910553574562, -0.0603279210627079, -0.07537109404802322], [-0.042248789221048355, -0.06268151849508286, -0.06544570624828339, 0.06368573009967804, -0.049454521387815475], [-0.02093278244137764, -0.07072988152503967, 0.035445909947156906, 0.017025912180542946, -0.04337037727236748], [-0.037364423274993896, 0.07869334518909454, 0.025515839457511902, -0.06152164563536644, -0.07138969749212265], [-0.018732363358139992, -0.07945728302001953, -0.027556009590625763, 0.06059015914797783, -0.030992424115538597]], [[-0.022884279489517212, 0.023577142506837845, 0.07426625490188599, -0.07222187519073486, 0.05955566465854645], [0.06061365455389023, 0.024919182062149048, 0.04320639744400978, 0.005618915427476168, -0.054110441356897354], [-0.03926175460219383, 0.04180585965514183, -0.025945045053958893, 0.03697557374835014, -0.05660773813724518], [0.026559337973594666, -0.040552567690610886, -0.03248901292681694, 0.06492913514375687, 0.0005806653061881661], [-0.023934202268719673, 0.0038860884960740805, 0.06359487026929855, -0.017071543261408806, -0.06170576438307762]], [[0.0629696473479271, 0.0010479657212272286, -0.017505768686532974, 0.020246597006917, -0.0011029302841052413], [-0.0022874458227306604, 0.07868440449237823, 0.016302186995744705, -0.07519113272428513, 0.04481694474816322], [0.017183497548103333, 0.06171237304806709, 0.026415059342980385, -0.016094328835606575, 0.05750022456049919], [-0.02552701346576214, 0.014723088592290878, -0.05411655455827713, 0.05863352119922638, -0.017075203359127045], [0.08120890706777573, -0.025457216426730156, 0.008488000370562077, -0.07869303226470947, -0.016954148188233376]]], [[[0.02123110182583332, 0.05942322313785553, 0.02293148636817932, 0.031953975558280945, -0.05794820562005043], [-0.04196235164999962, -0.0678860992193222, 0.07957305014133453, -0.015519436448812485, -0.03875812888145447], [0.019273919984698296, -0.015451526269316673, -0.07833967357873917, -0.052538059651851654, 0.021922795102000237], [0.023748965933918953, -0.02643583156168461, 0.063720703125, 0.017086492851376534, 0.04192227125167847], [-0.042039304971694946, -0.029016660526394844, -0.00676126591861248, 0.07323089241981506, 0.0692807137966156]], [[0.010310997255146503, 0.033803194761276245, 0.018549490720033646, -0.034396104514598846, 0.023801341652870178], [0.059310149401426315, -0.028551064431667328, 0.0020725519862025976, 0.06787411123514175, -0.05471108853816986], [-0.018624652177095413, -0.0450005941092968, -0.05441061034798622, 0.02010842226445675, -0.05959443375468254], [-0.04838620126247406, 0.028337212279438972, 0.05464426055550575, -0.067622609436512, 0.02918778359889984], [-0.06520390510559082, 0.07889650762081146, 0.029250292107462883, -0.017654281109571457, -0.050357215106487274]], [[0.07450554519891739, 0.038390420377254486, 0.014187537133693695, 0.06310974806547165, -0.010727771557867527], [0.062189873307943344, 0.015223686583340168, -0.0237968061119318, 0.06742680817842484, 0.0741015076637268], [-0.055079273879528046, 0.05750666931271553, 0.017980331555008888, 0.040276236832141876, -0.035612769424915314], [-0.07099492102861404, -0.02590969204902649, -0.0743478536605835, -0.07900145649909973, 0.01849696971476078], [0.05466620996594429, 0.05179167538881302, -0.020685086026787758, -0.0509895458817482, 0.0016627856530249119]], [[-0.0558965690433979, -0.03336438536643982, 0.04096812382340431, -0.011686239391565323, -0.01779882237315178], [-0.062016937881708145, -0.04147445783019066, -0.025068191811442375, -0.06546107679605484, 0.04252864420413971], [0.04995855316519737, 0.013117632828652859, -0.04392189159989357, -0.06334351748228073, 0.04530220478773117], [0.07331089675426483, 0.008239448070526123, 0.00920689944177866, 0.030259305611252785, 0.07549863308668137], [0.07913064956665039, 0.04340684786438942, 0.00139517558272928, -0.0002789105346892029, 0.026327168568968773]], [[0.01956973597407341, 0.07002310454845428, -0.060728754848241806, -0.03359101712703705, 0.030121129006147385], [-0.04566207528114319, -0.05941779166460037, 0.05047452077269554, -0.017896274104714394, 0.028525065630674362], [0.06259985268115997, -0.018031325191259384, -0.01914471760392189, -0.05198308080434799, -0.027719764038920403], [0.04043780267238617, -0.05253726243972778, 0.02990451268851757, 0.03088442236185074, -0.07343299686908722], [-0.03306248411536217, -0.046266451478004456, -0.06745990365743637, -0.0018989178352057934, 0.03508226200938225]], [[-0.0031702066771686077, 0.04903686046600342, -0.054488107562065125, -0.008238591253757477, 0.06475560367107391], [0.006533971522003412, -0.007673849817365408, -0.00189964787568897, -0.06067255139350891, 0.06112251803278923], [-0.06282413005828857, 0.07915160059928894, -0.07007985562086105, 0.049378152936697006, -0.002582153771072626], [0.0040559847839176655, 0.047467924654483795, 0.03797825798392296, -0.04754900187253952, 0.04024466127157211], [0.05841437727212906, 0.062480997294187546, -0.0804179310798645, -0.07266173511743546, -0.06746184825897217]]], [[[0.018707552924752235, -0.056822486221790314, 0.07774517685174942, 0.05547412112355232, 0.02245134860277176], [0.03803303837776184, 0.06024031341075897, 0.03939377889037132, -0.07960349321365356, 0.04057997837662697], [0.05130954086780548, -0.08084481954574585, 0.0030465438030660152, 0.0226798877120018, -0.05327510088682175], [0.03740053251385689, 0.07954370230436325, 0.05107274651527405, 0.05179417505860329, -0.01136082224547863], [-0.031812142580747604, 0.05298926308751106, 0.04241921007633209, 0.04184182360768318, -0.06628932058811188]], [[-0.0548921599984169, -0.07226105779409409, -0.07767722010612488, -0.051194626837968826, -0.047831688076257706], [-0.004474190063774586, -0.05709093436598778, -0.01455582957714796, -0.03296438232064247, -0.06348937004804611], [0.018640536814928055, -0.02997181937098503, -0.003657957073301077, -0.00834227167069912, -0.02542021870613098], [-0.010476270690560341, -0.05497094243764877, 0.045969389379024506, 0.055182021111249924, 0.024623287841677666], [-0.0010009048273786902, 0.0053135789930820465, 0.043663498014211655, -0.06529338657855988, -0.018687356263399124]], [[-0.03873039782047272, 0.007993008010089397, -0.07718091458082199, -0.05787300318479538, -0.036342211067676544], [-0.059849563986063004, -0.006646937690675259, 0.004484731238335371, 0.027664165943861008, -0.06849208474159241], [0.009452316910028458, -0.059325918555259705, 0.060176558792591095, 0.0007947027334012091, 0.005531217437237501], [-0.05458401143550873, -0.008719217032194138, 0.015768863260746002, -0.03818923979997635, -0.03416560962796211], [0.05878185108304024, 0.04825834184885025, -0.047425951808691025, -0.06170232594013214, 0.07138964533805847]], [[0.06785032153129578, 0.008159536868333817, 0.06799938529729843, 0.029677579179406166, 0.05442052707076073], [0.006705892737954855, -0.015969878062605858, -0.06539881974458694, 0.04171375185251236, 0.048328716307878494], [0.014320077374577522, -0.02135334350168705, 0.026097362861037254, -0.00827617198228836, 0.06267780065536499], [-0.06538998335599899, 0.0426783412694931, -0.02015094645321369, 0.06256473809480667, -0.014060769230127335], [0.004498319234699011, 0.03228794038295746, -0.01652718335390091, 0.0013805949129164219, -0.08002980798482895]], [[0.015613607130944729, -0.02665996178984642, -0.041826281696558, -0.0604025274515152, -0.015595532022416592], [0.05977746844291687, -0.0015729657607153058, 0.03277517482638359, 0.0052266791462898254, 0.04565594345331192], [0.07255389541387558, 0.01793278381228447, -0.009843064472079277, -0.042610879987478256, -0.01687687449157238], [0.020789097994565964, -0.04401721805334091, -0.026051614433526993, -0.017106933519244194, 0.05400138720870018], [-0.04678826779127121, -0.06470600515604019, 0.05652456730604172, 0.026299679651856422, 0.007658918853849173]], [[-0.06141458824276924, -0.040238089859485626, -0.008586161769926548, -0.044185537844896317, -0.00018433108925819397], [0.04983562231063843, -0.005416421685367823, 0.0531584769487381, -0.012247486039996147, -0.060994621366262436], [0.07413587719202042, -0.006342476699501276, 0.03491958603262901, -0.08094242960214615, 0.012413275428116322], [-0.07544149458408356, 0.006589101627469063, -0.05245488882064819, -0.001965893432497978, 0.07145021855831146], [0.025209734216332436, 0.06241501495242119, -0.06620173901319504, -0.04714053124189377, 0.019319334998726845]]]], "conv2.bias": [0.0726979523897171, 0.010272384621202946, -0.0034914379939436913, 0.0591154508292675, 0.020742133259773254, -0.08060827851295471, -0.024158984422683716, 0.03419774770736694, -0.030979838222265244, -0.019716748967766762, -0.040235765278339386, -0.041670527309179306, 0.05713079497218132, 0.014481320045888424, 0.06874708831310272, 0.03582039475440979], "fc1.weight": [[-0.020024962723255157, -0.023374013602733612, -0.042986638844013214, -0.05947769433259964, -0.02766404300928116, -0.00011962652206420898, 0.018555760383605957, -0.04119155555963516, 8.007138967514038e-05, -0.020095892250537872, 0.030855193734169006, 0.005025848746299744, -0.009041383862495422, -0.06199710816144943, -0.02846672385931015, 0.030978195369243622, -0.04476534575223923, -0.0038514360785484314, 0.04833857715129852, -0.03667370229959488, 0.016220957040786743, 0.056950636208057404, 0.009681612253189087, -0.033427514135837555, 0.0253242626786232, 0.009674690663814545, 0.02218586951494217, 0.03147374838590622, 0.05584651976823807, 0.014659598469734192, -0.0041943565011024475, 0.01197294145822525, 0.014506392180919647, -0.033816248178482056, 0.061403051018714905, 0.040528662502765656, 0.026394635438919067, -0.00424610823392868, 0.00811440497636795, -0.012532085180282593, -0.044728487730026245, -0.012758821249008179, -0.025273047387599945, 0.0616426020860672, 0.04216937720775604, 0.0040505751967430115, -0.058521568775177, 0.05995975434780121, -0.017567120492458344, 0.04419867694377899, -0.013951815664768219, -0.01177331805229187, 0.05879775434732437, 0.05474922060966492, 0.0464954748749733, 0.048217467963695526, 0.0037463754415512085, 0.05071810632944107, 0.027611397206783295, -0.05411908030509949, 0.042543597519397736, 0.021417073905467987, 0.017004407942295074, 0.044327639043331146, 0.03129981458187103, -0.06017754226922989, 0.020438939332962036, 0.03166213631629944, 0.05023454129695892, 0.018489085137844086, -0.009035788476467133, 0.01658923178911209, -0.03279976546764374, 0.01845817267894745, 0.009828999638557434, -0.022324733436107635, 0.034057870507240295, 0.01101011037826538, 0.05365730822086334, 0.03422237187623978, -0.030829772353172302, -0.015469394624233246, -0.002444930374622345, -0.05983550101518631, 0.018559403717517853, 0.01136256754398346, 0.05469308793544769, -0.027520716190338135, -0.05389462411403656, 0.005774840712547302, 0.031076788902282715, -0.036011435091495514, -0.05378822982311249, 0.04999953508377075, 0.00606459379196167, 0.02895117551088333, -0.022252634167671204, 0.0015744194388389587, 0.04882137477397919, -0.05761803686618805, 0.05130387842655182, -0.05124518275260925, -0.032528385519981384, -0.00962500274181366, -0.0044760555028915405, 0.054715417325496674, 0.027480699121952057, 0.026727944612503052, 0.031070411205291748, 0.01247762143611908, -0.06118323653936386, 0.037618488073349, 0.050280049443244934, -0.02044469118118286, 0.00836942344903946, 0.035311371088027954, 0.009018152952194214, -0.06139758229255676, 0.042692847549915314, 0.01888042688369751, 0.03444882482290268, -0.005131661891937256, -0.0033383071422576904, 0.025674208998680115, 0.0040029436349868774, -0.059208743274211884, 0.03683609515428543, 0.0064251720905303955, -0.009108774363994598, 0.004551462829113007, -0.046817608177661896, -0.009811677038669586, 0.002952165901660919, -0.019384630024433136, -0.051463671028614044, -0.0033203288912773132, 0.05798136442899704, -0.042303770780563354, 0.009763985872268677, -0.06134605407714844, -0.04725649207830429, -0.014125451445579529, -0.0019433125853538513, 0.04614607244729996, 0.05997203290462494, -0.033415667712688446, -0.05467997491359711, -0.03831262141466141, 0.051903702318668365, 0.04535486549139023, 0.04772026091814041, -0.03711085021495819, 0.04858513921499252, -0.015606693923473358, 0.04549793899059296, -0.05527807027101517, -0.012149184942245483, 0.007541581988334656, 0.005492158234119415, -0.05110128968954086, 0.041917212307453156, -0.04354925453662872, -0.0017420649528503418, 0.03668459504842758, -0.03602255880832672, -0.019037917256355286, -0.016199342906475067, -0.006216265261173248, -0.04521217942237854, 0.01511005312204361, 0.025122135877609253, -0.04185821861028671, -0.05352295935153961, -0.04377248138189316, 0.062440864741802216, -0.05767323076725006, 0.0015917718410491943, -0.050248339772224426, 0.0011470690369606018, 0.035225048661231995, -0.03648986667394638, 0.008543260395526886, -0.019721969962120056, 0.06056741625070572, 0.04039368778467178, -0.03350573033094406, 0.028271980583667755, 0.029932238161563873, 0.04988633096218109, 0.044780947268009186, 0.03965473920106888, 0.00583396852016449, -0.04682274907827377, 0.02058596909046173, 0.0551188662648201, 0.0009970217943191528, 0.0026018470525741577, -0.0021455660462379456, -0.013879917562007904, -0.02958735078573227, -0.003819108009338379, -0.02156425267457962, -0.022428929805755615, -0.04942759871482849, 0.009527347981929779, -0.02925076335668564, 0.005831561982631683, -0.009499877691268921, 0.028848670423030853, 0.055790603160858154, -0.043082088232040405, -0.04676840454339981, 0.04811541736125946, -0.017744332551956177, -0.010908052325248718, 0.04102667421102524, 0.032731346786022186, -0.03368518501520157, -0.016858547925949097, 0.04105275124311447, -0.024182841181755066, 0.020268872380256653, -0.05510527640581131, -0.026764705777168274, -0.041049934923648834, 0.05012551695108414, 0.044783756136894226, 0.0554661899805069, -0.016858212649822235, -0.002618655562400818, 0.05757962912321091, 0.009837299585342407, -0.04255039244890213, 0.028992965817451477, 0.03990686684846878, -0.001805320382118225, 0.03546147793531418, 0.05324551463127136, -0.015849411487579346, -0.0042917802929878235, 0.014119647443294525, 0.0046836212277412415, -0.04185309261083603, -0.04015325754880905, 0.04886437952518463, -0.05925219506025314, 0.05772329121828079, -0.024829261004924774, 0.026959188282489777, -0.0392465740442276, 0.05177260935306549, -0.013301052153110504, 0.060657158493995667, 0.06201929599046707, 0.01101723313331604, 0.026637651026248932], [-0.013073012232780457, 0.038824811577796936, 0.03411969542503357, -0.0066494569182395935, -0.05548235774040222, 0.05885126441717148, -0.02882324904203415, -0.007178321480751038, -0.04034291207790375, -0.0033885687589645386, 0.02539271116256714, -0.03916167467832565, -0.008699975907802582, -0.05472695827484131, 0.006650269031524658, -0.05791512876749039, 0.0229201540350914, 0.020901821553707123, 0.05213860422372818, -0.03591686487197876, 0.018142133951187134, -0.02170567214488983, -0.04214610904455185, -0.03742954134941101, 0.015466511249542236, 0.011814847588539124, -0.03804595768451691, -0.04455025494098663, -0.048907823860645294, -0.03741389513015747, -0.061603717505931854, 0.0444539338350296, -0.05037962645292282, 0.03909970074892044, -0.017024986445903778, 0.04559504985809326, 0.011448211967945099, 0.01716473698616028, -0.03200317174196243, 0.04749274253845215, 0.0365469753742218, -0.05164950340986252, 0.04475606977939606, 0.05255217105150223, -0.06186416745185852, -0.00601571798324585, -0.014477752149105072, -0.007899641990661621, -0.0321982279419899, -0.029362909495830536, -0.04152054339647293, -0.01800817996263504, -0.025055445730686188, 0.043852873146533966, 0.06127055734395981, 0.023874789476394653, 0.048883967101573944, 0.015953384339809418, 0.009111396968364716, -0.04434295743703842, -0.0009495168924331665, -0.03926936537027359, -0.062027543783187866, 0.013206541538238525, -0.005478978157043457, 0.024257846176624298, 0.018563732504844666, -0.009858258068561554, -3.905594348907471e-05, -0.037079066038131714, 0.013659566640853882, -0.005533173680305481, -0.04128488153219223, -0.019897982478141785, -0.03326830267906189, 0.016348645091056824, -0.003898710012435913, -0.011901117861270905, -0.059408508241176605, 0.03455197066068649, -0.04678676277399063, 0.002359934151172638, -0.056742265820503235, -0.061599552631378174, -0.006565086543560028, 0.026207365095615387, -0.01009407639503479, 0.023668162524700165, -0.06194496154785156, -0.025161229074001312, -0.05404485762119293, 0.05947478115558624, -0.05518508702516556, 0.03656884282827377, -0.017446957528591156, -0.03413701057434082, 0.04889106750488281, 0.05073166638612747, 0.03535917401313782, -0.015136048197746277, -0.049869634211063385, 0.03717780113220215, 0.025728896260261536, -0.03860384225845337, -0.00622972846031189, 0.029067866504192352, 0.009667627513408661, 0.033231258392333984, -0.04052920639514923, 0.04188157618045807, -0.03633519262075424, -0.031159088015556335, -0.022481873631477356, 0.027597837150096893, -0.04432518035173416, 0.05413352698087692, 0.05736809968948364, 0.036197662353515625, -0.00416632741689682, -0.03807343542575836, -0.0009125098586082458, -0.00984971970319748, -0.0527956485748291, 0.03857935965061188, -0.04187847673892975, -0.03535904735326767, 0.03835563361644745, -0.010516524314880371, 0.007132574915885925, -0.04935512691736221, -0.0077093616127967834, -0.021212391555309296, 0.003625430166721344, -0.0291224867105484, -0.03458442538976669, -0.025695227086544037, -0.04171108454465866, 0.016132257878780365, -0.016437657177448273, -0.0218309685587883, -0.02110917866230011, 0.0022303983569145203, -0.059779003262519836, 0.03015308827161789, 0.014186687767505646, 0.02748442441225052, -0.006871998310089111, 0.015054993331432343, -0.04705182462930679, 0.05524342507123947, -0.012496508657932281, 0.012130647897720337, -0.00281582772731781, 0.02531592547893524, 0.05269649624824524, -0.011063620448112488, -0.06227009743452072, 0.0257827490568161, 0.0296095609664917, 0.016584083437919617, 0.021117404103279114, 0.023487158119678497, -0.003194652497768402, -0.012429051101207733, 0.06068369746208191, 0.019509367644786835, 0.011942297220230103, 0.05126620829105377, 0.05412697046995163, 0.030307911336421967, -0.03994672745466232, 0.006941735744476318, -0.010586939752101898, -0.04596610367298126, 0.03072725236415863, -0.0618864968419075, 0.02466871589422226, 0.020632348954677582, -0.033964626491069794, -0.025726713240146637, 0.014052145183086395, -0.008043467998504639, -0.03804393112659454, 0.01015184074640274, 0.06032991409301758, 0.056692689657211304, -0.03951134532690048, 0.05939795821905136, -0.013616256415843964, -0.02342388778924942, -0.05506328493356705, -0.055494844913482666, 0.019162990152835846, 0.043142206966876984, 0.042069971561431885, 0.03558552265167236, 0.0452611967921257, 0.03608742356300354, 0.0013234466314315796, 0.05948442965745926, -0.03543568402528763, 0.042413435876369476, 0.0012983977794647217, 0.0015607327222824097, -0.04022035747766495, 0.041444405913352966, -0.04588082432746887, -0.019045263528823853, -0.0381266251206398, -0.0192689448595047, 0.03295387327671051, -0.009090796113014221, 0.0016938671469688416, 0.012262120842933655, -0.035822831094264984, 0.04840794950723648, -0.026235856115818024, 0.046793870627880096, 0.019900597631931305, -0.000882372260093689, -0.025060929358005524, -0.020021826028823853, 0.05370720475912094, -0.04372726380825043, 0.020961090922355652, -0.05077004432678223, 0.03300383687019348, 0.031243473291397095, -0.017483823001384735, -0.04511650651693344, 0.0068209245800971985, -0.041101276874542236, -0.004240401089191437, 0.00656554102897644, 0.03995726257562637, -0.039195917546749115, -0.04589470475912094, -0.03466235101222992, -0.010857082903385162, 0.00020316988229751587, 0.022488392889499664, 0.015045933425426483, 0.025407321751117706, 0.03291887789964676, 0.044073447585105896, 0.006565265357494354, -0.011882767081260681, 0.003464825451374054, -0.013575352728366852, -0.0004676803946495056, 0.0520092248916626, -0.04627125710248947, 0.05939226597547531, 0.04215063899755478, 0.031587012112140656, 0.013290174305438995], [-0.040136054158210754, 0.00736488401889801, -0.034086696803569794, 0.04113972187042236, 0.06156815588474274, -0.03697047382593155, -0.007680721580982208, 0.05539633333683014, 0.01522449404001236, 0.024329274892807007, 0.059762582182884216, -0.008973352611064911, 0.041933685541152954, 0.025570310652256012, -0.02868948131799698, 0.05495399981737137, 0.04665317386388779, 0.030786767601966858, 0.035564884543418884, -0.057586267590522766, 0.051868923008441925, -0.004716105759143829, -0.02532035857439041, -0.0474463626742363, 0.005857542157173157, -0.005289509892463684, -0.002377748489379883, 0.02019369602203369, 0.0005796253681182861, 0.05766129493713379, -0.039295412600040436, 0.03699076175689697, 0.04213172197341919, -0.006756193935871124, -0.012572802603244781, 0.029657810926437378, -0.029076136648654938, -0.021919071674346924, -0.05301472544670105, -0.013191841542720795, 0.03394731879234314, -0.008053548634052277, 0.037380650639534, 0.0382637083530426, -0.03735631704330444, 0.05551739037036896, 0.024476662278175354, -0.042866624891757965, 0.01663023978471756, -0.008672989904880524, 0.035451486706733704, -0.036215633153915405, 0.014489986002445221, 0.010918654501438141, 0.04026526212692261, 0.048981256783008575, 0.020534321665763855, -0.0005561113357543945, 0.012136884033679962, 0.05702759325504303, -0.04252249747514725, 0.04364051669836044, 0.02190125733613968, 0.05565008521080017, -0.01654788851737976, 0.011665381491184235, 0.03094375878572464, -0.02284659445285797, -0.01381082832813263, 0.002240806818008423, 0.002586148679256439, 0.0019911006093025208, -0.0429377406835556, 0.036065101623535156, 0.01408378779888153, 0.05960189551115036, -0.011277936398983002, -0.05608362704515457, 0.03033631294965744, 0.03592386841773987, -0.053243570029735565, -0.060855619609355927, 0.008256755769252777, 0.05662737041711807, -0.015452481806278229, -0.009479567408561707, 0.008473686873912811, -0.008903726935386658, -0.0290372371673584, 0.04646475613117218, 0.060718804597854614, 0.0393788143992424, 0.025853492319583893, -0.024495631456375122, 0.02989235520362854, -0.05508545786142349, 0.005095228552818298, -0.046730779111385345, 0.05427400767803192, 0.00911661982536316, -0.02789311110973358, -0.03795650601387024, 0.013655237853527069, -0.02288755774497986, 0.05804435908794403, 0.0004674643278121948, 0.043665193021297455, 0.03391525149345398, -0.02820347249507904, 0.01058996468782425, -0.023322924971580505, -0.061529919505119324, 0.02430817484855652, 0.03972703218460083, 0.05193182826042175, 0.04244442284107208, 0.03942883014678955, -0.03681667894124985, 0.024167358875274658, 0.025324203073978424, 0.007763504981994629, -0.050526008009910583, -0.0065076351165771484, 0.03790218383073807, -0.04226347804069519, 0.05183781683444977, -0.03152741491794586, 0.025419771671295166, -0.014201506972312927, -0.06025093048810959, 0.046495579183101654, 0.04838334769010544, 0.049428507685661316, 0.012373775243759155, 0.05256456881761551, -0.03819749504327774, -0.03752928227186203, -0.05692261457443237, 0.03397361934185028, -0.04657573997974396, -0.030437983572483063, -0.014977425336837769, 0.022262394428253174, 0.0023726075887680054, -0.03066857159137726, -0.007521674036979675, -0.0031478777527809143, 0.053746648132801056, 0.02216271311044693, -0.02119823545217514, 0.05921245366334915, -0.059579022228717804, -0.005644857883453369, -0.024103321135044098, 0.045434027910232544, 0.04526710510253906, 0.0001927986741065979, 0.05991026759147644, 0.014268361032009125, -0.0538388192653656, -0.038670048117637634, 0.052395299077034, -0.05998840183019638, 0.007268272340297699, -0.05585672706365585, -2.006441354751587e-05, -0.008093543350696564, -0.025448471307754517, -0.04544585198163986, -0.010779902338981628, -0.003287367522716522, 0.05471218377351761, 0.02816825360059738, -0.0015520080924034119, -0.022162966430187225, -0.049176692962646484, -0.05238235741853714, -0.05471599102020264, 0.0057383328676223755, 0.00856006145477295, 0.03329819440841675, -0.05605561286211014, -0.0573812872171402, 0.014433912932872772, 0.025955013930797577, 0.01748000830411911, 0.04713965952396393, -0.028849951922893524, -0.03595583140850067, 0.04178618639707565, -0.04622604697942734, -0.04465222358703613, -0.002901732921600342, 0.057049162685871124, 0.04901278018951416, 0.047047294676303864, 0.002491213381290436, 0.05747628211975098, 0.01775340735912323, -0.04082656651735306, -0.009226799011230469, -0.04728357493877411, -0.009604759514331818, -0.04441871494054794, 0.05973631888628006, 0.06176115572452545, -0.04742623120546341, -0.004529058933258057, -0.061851292848587036, 0.03970344364643097, -0.03224077820777893, 0.05630498379468918, 0.029806487262248993, 0.007025241851806641, -0.015263497829437256, -0.03214317560195923, -0.03635121136903763, -0.007003858685493469, -0.012634895741939545, 0.039562493562698364, -0.050911106169223785, -0.002208806574344635, 0.013156235218048096, 0.04827308654785156, -0.0030091479420661926, -0.0408453494310379, -0.04778323322534561, 0.04931808263063431, 0.016272597014904022, 0.055118121206760406, -0.049509093165397644, -0.014300040900707245, -0.05680735409259796, -0.047209203243255615, 0.043672867119312286, -0.0034203752875328064, -0.038378141820430756, 0.03627978265285492, -0.030250243842601776, -0.042597539722919464, -0.0021618306636810303, 0.018406488001346588, -0.007472872734069824, 0.022773228585720062, -0.046251289546489716, 0.02334187924861908, 0.04175560176372528, -0.02308572083711624, 0.029246114194393158, 0.01957278698682785, -0.04686982184648514, 0.03148321062326431, -0.04246225208044052, 0.0015719160437583923, -0.060697779059410095, -0.017776645720005035], [0.010074786841869354, -0.023074574768543243, 0.007299400866031647, 0.05849798023700714, 0.02673325687646866, -0.03555716574192047, 0.05839535593986511, -0.014519855380058289, 0.03192684054374695, -0.0109701007604599, 0.04245983809232712, -0.016931205987930298, 0.014295168220996857, -0.019869916141033173, 0.05256561189889908, -0.023014888167381287, -0.043901316821575165, 0.045319996774196625, 0.03333977609872818, -0.01412278413772583, -0.018834300339221954, 0.030932225286960602, -0.01230485737323761, 0.023143552243709564, -0.042259253561496735, 0.011513955891132355, -0.04105895757675171, -0.026766575872898102, -0.029802165925502777, 0.035450488328933716, -0.01910056173801422, 0.032275401055812836, 0.03147062659263611, -0.026738382875919342, 0.0224355086684227, 0.06017377972602844, 0.04119127243757248, 0.04485418647527695, -0.005459167063236237, -0.056357018649578094, -0.006906189024448395, -0.043431274592876434, -0.042370185256004333, 0.02951785922050476, -0.0058787912130355835, 0.04462001472711563, 0.013363063335418701, 0.0616336390376091, -0.017335213720798492, 0.037464678287506104, -0.0006941258907318115, 0.02760402113199234, 0.026124104857444763, -0.05251419544219971, -0.005559273064136505, -0.03488854318857193, 0.001222945749759674, 0.026904821395874023, 0.010092772543430328, -0.01672181487083435, 0.059600330889225006, 0.016526632010936737, -0.03502795845270157, 0.05568082630634308, 0.010503232479095459, 0.004810027778148651, -0.019172057509422302, -0.03132595866918564, 0.03131038695573807, 0.035046011209487915, 0.006774455308914185, -0.016803279519081116, -0.055253349244594574, -0.020028918981552124, 0.053174637258052826, -0.025191985070705414, 0.0548558384180069, -0.005630768835544586, -0.0004339739680290222, -0.009661637246608734, 0.05848514288663864, -0.03888259083032608, 0.01082158088684082, -0.009840607643127441, -0.027752317488193512, -0.008449524641036987, 0.011344395577907562, -0.009846806526184082, -0.00887078046798706, 0.0512671172618866, -0.050731196999549866, -0.016129270195961, 0.02695508301258087, -0.044879063963890076, -0.033169835805892944, 0.048958100378513336, 0.048328228294849396, -0.018016785383224487, -0.011246606707572937, -0.018808066844940186, -0.06226249784231186, -0.056249141693115234, 0.0036696717143058777, -0.04569917917251587, -0.04467952251434326, -0.04549414664506912, -0.0011727139353752136, 0.05395454168319702, -0.054674118757247925, 0.02382662147283554, 0.04085429012775421, 0.008421167731285095, -0.062154144048690796, -0.010678477585315704, 0.01758863776922226, -0.03154127299785614, -0.06076580286026001, -0.0018242374062538147, -0.05637204647064209, 0.003814123570919037, -0.012095548212528229, 0.006848141551017761, 0.03396167606115341, 0.0245659202337265, -0.043293535709381104, -0.0017673969268798828, 0.040269188582897186, 0.03163951635360718, 0.013773322105407715, -0.0543680340051651, 0.027178339660167694, -0.01815987378358841, 0.025597237050533295, 0.033886127173900604, 0.007544271647930145, 0.021968089044094086, -0.03766576945781708, -0.058521486818790436, 0.008446186780929565, 0.02902834862470627, -0.019953735172748566, -0.02822224050760269, 0.01589258760213852, 0.03871673345565796, 0.004792764782905579, -0.03747813403606415, 0.016286879777908325, 0.04095090180635452, -0.019957900047302246, 0.014254197478294373, -0.01924724131822586, -0.006872482597827911, -0.036437518894672394, 0.03358518332242966, 0.0080132856965065, -0.036522626876831055, -0.05512012541294098, -0.0003633648157119751, 0.0032084956765174866, -0.056879714131355286, 0.04309394955635071, 0.023872539401054382, -0.03777095675468445, -0.01379857212305069, 0.04036055505275726, 0.0028913170099258423, 0.02447883039712906, 0.018367312848567963, -0.03022380918264389, -0.04630152881145477, 0.0027352795004844666, 0.056846603751182556, 0.029893480241298676, 0.03956414759159088, 0.016470395028591156, 0.04057828336954117, -0.05642881244421005, 0.007389970123767853, 0.04514676332473755, 0.01978011429309845, 0.04370114207267761, 0.02851766347885132, -0.03253202885389328, 0.031261131167411804, -0.0016900673508644104, -0.05247174948453903, 0.011894695460796356, 0.055434904992580414, 0.005787581205368042, -0.008822351694107056, -0.02300475537776947, 0.050614967942237854, 0.013975076377391815, 0.02722156047821045, 0.05953814834356308, -0.004983946681022644, -0.027611784636974335, 0.05135807394981384, 0.03378254175186157, -0.049015454947948456, -0.05769073963165283, -0.019717298448085785, 0.007192499935626984, -0.056666433811187744, -0.01169227808713913, -0.05913592875003815, -0.03856312483549118, 0.05907328426837921, 0.0038001611828804016, -0.013294443488121033, 0.057501792907714844, -0.024490758776664734, 0.005087897181510925, 0.05455431342124939, -0.047633856534957886, -0.04951707273721695, 0.0558210089802742, -0.008011966943740845, 0.014059573411941528, -0.059210941195487976, 0.02339337021112442, -0.054985277354717255, -0.05767080932855606, -0.01071455329656601, 0.03462236374616623, -0.0019712895154953003, -0.05954516679048538, 0.04846596717834473, -0.03034786880016327, -0.054177239537239075, 0.02497401088476181, 0.03298155218362808, -0.0024339184165000916, 0.05717836320400238, -0.058458857238292694, -0.01901113986968994, 0.04021307826042175, -0.06026612967252731, -0.04314686357975006, -0.005382955074310303, 0.0510314479470253, 0.023770004510879517, -0.004666417837142944, -0.017982564866542816, -0.05769907683134079, -0.05726177245378494, -0.056733034551143646, 0.005943112075328827, 0.017719082534313202, 0.03243167698383331, -0.038216277956962585, -0.022818654775619507, 0.01811452955007553, -0.01636148989200592, -0.05185574293136597, -0.019069932401180267], [0.053644612431526184, -0.021929636597633362, -0.04947754740715027, 0.050252221524715424, -0.024222031235694885, -0.028842926025390625, -0.020127899944782257, 0.033937543630599976, -0.0007589533925056458, -0.022529393434524536, -0.05584019422531128, 0.03605533391237259, 0.029671095311641693, 0.024479828774929047, 0.00877457857131958, 0.0028760284185409546, -0.041884519159793854, 0.05069829523563385, 0.05033040791749954, -0.023293785750865936, 0.036122970283031464, -0.006289072334766388, 0.031597308814525604, -0.009705521166324615, -0.010933458805084229, -0.04117094725370407, -0.046048521995544434, -0.02082766592502594, 0.05533909052610397, -0.01761467754840851, 0.017676301300525665, 0.06230427324771881, 0.05227014422416687, -0.030376054346561432, 0.05670057237148285, 0.05971090495586395, -0.0038646310567855835, 0.009916402399539948, 0.03602525591850281, -0.027810826897621155, -0.04898480325937271, -0.021826982498168945, 0.025259986519813538, 0.028644084930419922, -0.04113137722015381, 0.04158640652894974, 0.00645214319229126, -0.04553350806236267, 0.04369344562292099, -0.043596088886260986, -0.020550347864627838, -0.031372152268886566, 0.010631270706653595, 0.004003465175628662, -0.0007770806550979614, 0.023093946278095245, -0.013999514281749725, -0.006115823984146118, -0.022837303578853607, 0.04263754189014435, -0.030747637152671814, -0.03602922707796097, -0.060107432305812836, 0.03978890925645828, 0.0009252578020095825, 0.00760776549577713, -0.019666172564029694, -0.007553122937679291, -0.05691937357187271, 0.060684219002723694, -0.03822454810142517, -0.040375158190727234, 0.06183568388223648, -0.03477669507265091, -0.03403306007385254, -0.04964832216501236, 0.005047976970672607, 0.029879815876483917, 0.028940439224243164, -0.017602257430553436, 0.03503928333520889, -0.043417833745479584, -0.05502500385046005, -0.008893996477127075, 0.043509215116500854, -0.04640195518732071, 0.05310576409101486, 0.0498693585395813, -0.01848509907722473, 0.06156080961227417, 0.03289509564638138, -0.017862066626548767, 0.0011929422616958618, 0.04153796285390854, -0.009326085448265076, 0.021912723779678345, 0.021777845919132233, 0.02286272495985031, 0.029639795422554016, -0.006356850266456604, -0.02580319344997406, -0.012833423912525177, 0.014311477541923523, -0.025280863046646118, 0.007302373647689819, 0.0027744844555854797, 0.01877278834581375, 0.059797435998916626, 0.02350686490535736, 0.0451994389295578, 0.02231014519929886, 0.058338701725006104, -0.05757611244916916, -0.012239716947078705, -0.04079972207546234, 0.03533069044351578, 0.04782480001449585, 0.05806920677423477, 0.05676334351301193, -0.019151434302330017, 0.035023272037506104, 0.00988391786813736, 0.02958691120147705, 0.06236574798822403, -0.04435597360134125, -0.019913583993911743, -0.0019060373306274414, -0.016390912234783173, 0.0008421465754508972, 0.06173202395439148, -0.05154667794704437, -0.020105697214603424, 0.054639071226119995, -0.039054520428180695, -0.060336172580718994, -0.037745870649814606, -0.02491244673728943, -0.0025554299354553223, 0.015195727348327637, 0.021501697599887848, -0.02200710028409958, -0.04800957441329956, -0.013848468661308289, -0.01120007038116455, 0.02040240168571472, -0.008154034614562988, 0.060217782855033875, 0.04100780189037323, 0.0049700066447257996, -0.019444704055786133, -0.050970204174518585, -0.04914943128824234, 0.0005931630730628967, -0.0005719363689422607, 0.04504050314426422, -0.017752818763256073, -0.036616966128349304, -0.04989045113325119, -2.0802021026611328e-05, -0.026968032121658325, -0.019196026027202606, -0.04941168427467346, 0.047423116862773895, 0.010509438812732697, 0.049209266901016235, -0.05670683830976486, 0.026602230966091156, -0.04909151792526245, -0.04164980351924896, 0.04117920249700546, -0.05624697357416153, 0.022990092635154724, 0.02324962615966797, 0.011017635464668274, 0.06207022815942764, -0.03681154549121857, -0.0114460289478302, -0.04389391839504242, -0.03810599446296692, 0.057917915284633636, 0.012594752013683319, -0.030979596078395844, -0.046779900789260864, 0.010926999151706696, -0.011467717587947845, 0.05772702395915985, -0.01743403822183609, -0.06210709363222122, 0.05079399794340134, 0.05084797739982605, 0.010093003511428833, 0.0028327777981758118, 0.006215699017047882, 0.017077073454856873, -0.059611573815345764, 0.030760258436203003, -0.022311381995677948, 0.021196454763412476, -0.029460281133651733, -0.0038146600127220154, 0.04371805489063263, 0.022751212120056152, -0.02826443314552307, 0.026780299842357635, -0.03945823013782501, -0.06207616627216339, 0.0612160861492157, -0.03884463012218475, -0.05293847620487213, 0.05008602887392044, -0.053832076489925385, 0.008591458201408386, 0.0038172081112861633, -0.05000973492860794, 0.05282057076692581, -0.042695313692092896, 0.007857583463191986, 0.034139133989810944, -0.027286700904369354, 0.05128810554742813, 0.022289954125881195, 0.0573655441403389, 0.005002066493034363, 0.056401774287223816, -0.0529315248131752, 0.004770368337631226, 0.038766905665397644, 0.008365854620933533, 0.03262590616941452, 0.03833289444446564, -0.05215144902467728, 0.03537677973508835, -0.026337623596191406, 0.059946730732917786, 0.0520341619849205, -0.03999605029821396, 0.0006297007203102112, 0.0027172788977622986, 0.010423995554447174, -0.010736390948295593, -0.045770324766635895, -0.005337215960025787, 0.016328424215316772, -0.055777035653591156, -0.008452802896499634, 0.052088044583797455, -0.04106760025024414, -0.018160462379455566, -0.03739074617624283, 0.056929707527160645, -0.03950616717338562, -0.04452449828386307, 0.01743832230567932, 0.026958853006362915, 0.06064250320196152, 0.029991671442985535], [0.010313265025615692, 0.01646895706653595, 0.04272294044494629, -0.020143359899520874, 0.033998921513557434, 0.048049308359622955, 0.004717089235782623, -0.0131920725107193, 0.014370106160640717, 0.054158009588718414, -0.002125956118106842, -0.02105937898159027, 0.04373486340045929, 0.036206379532814026, 0.0017158910632133484, 0.058878205716609955, -0.033818766474723816, 0.020082101225852966, -0.011780016124248505, 0.019169285893440247, -0.059700168669223785, 0.057174719870090485, -0.009167447686195374, -0.052320294082164764, -0.036664195358753204, 0.014694839715957642, -0.005652777850627899, -0.03139667212963104, -0.03749807924032211, 0.06013358384370804, -0.03810310363769531, -0.04531431943178177, 0.03226865828037262, -0.025757774710655212, -0.04929107427597046, -0.017384886741638184, 0.017511017620563507, 0.03314387798309326, -0.044851839542388916, -0.032083794474601746, 0.04754089564085007, -0.05852450430393219, -0.03260625898838043, 0.01394258439540863, -0.05100017786026001, -0.03508505970239639, 0.00018317252397537231, -0.026327230036258698, -0.017615146934986115, -0.017233580350875854, 0.0269915834069252, -0.034150272607803345, 0.05723188817501068, -0.06070566177368164, 0.056152522563934326, 0.009909950196743011, -0.04202474653720856, 0.056607410311698914, -0.011685609817504883, -0.02447620779275894, -0.032169535756111145, -0.01291658729314804, 0.06195986270904541, 0.023648925125598907, -0.004384241998195648, -0.04577136039733887, -0.05017253756523132, 0.05579955875873566, -0.049813784658908844, 0.02693159133195877, -0.05829564481973648, 0.007603839039802551, -0.054372623562812805, -0.059084393084049225, -0.055954478681087494, -0.003003247082233429, -0.047385990619659424, 0.008849047124385834, 0.013036437332630157, -0.047606103122234344, 0.06052953749895096, 0.004000864923000336, 0.0019149258732795715, 0.0303773432970047, -0.0522063672542572, 0.01757483184337616, -0.028654471039772034, -0.006271675229072571, 0.004070080816745758, 0.03125855326652527, 0.0024016201496124268, -0.012159585952758789, 0.031984858214855194, -0.039976589381694794, -0.024915970861911774, 0.054256290197372437, -0.05691337585449219, 0.055933207273483276, 0.02373107522726059, 0.013244189321994781, -0.036795467138290405, 0.02666684240102768, -0.05108768492937088, -0.06027048081159592, 0.0393102765083313, -0.016337692737579346, -0.009024813771247864, 0.028065040707588196, 0.056920431554317474, 0.03969069570302963, -0.053146980702877045, 0.05697942525148392, -0.03039391338825226, 0.06159838289022446, -0.024499163031578064, -0.02368822693824768, 0.018937848508358, -0.05105254054069519, 0.020152151584625244, -0.0031283125281333923, -0.003483980894088745, -0.05732055753469467, -0.029313087463378906, -0.04749765247106552, -0.02421240508556366, 0.031932614743709564, -0.04813705384731293, 0.03122744709253311, 0.05233378708362579, 0.0051447078585624695, -0.02661779522895813, 0.05361673980951309, 0.01435476541519165, 0.0005735158920288086, 0.039049163460731506, -0.013862580060958862, 0.040728069841861725, -0.010932110249996185, 0.014588214457035065, -0.045481905341148376, -0.026059940457344055, 0.011172361671924591, 0.024345315992832184, 0.058144934475421906, -0.061531081795692444, 0.0175294429063797, -0.05884713679552078, -0.02479400485754013, -0.012245476245880127, 0.05509432405233383, 0.013922035694122314, -0.000750027596950531, -0.015077762305736542, 0.005241826176643372, 0.006886199116706848, -0.05589739978313446, -0.021575018763542175, 0.043605536222457886, 0.04203628748655319, 0.05436521768569946, -0.03123418241739273, 0.06059969961643219, -0.048015400767326355, -0.03426477313041687, -0.06248887628316879, -0.0026878342032432556, 0.019472718238830566, -0.04684815555810928, -0.0008602887392044067, 0.02541816234588623, 0.0023759230971336365, -0.01803956925868988, -0.054067254066467285, -0.02498721331357956, 0.014326445758342743, 0.05110759288072586, -0.013944953680038452, 0.04184696823358536, 0.03236769139766693, -0.007899902760982513, -0.05170155316591263, 0.02553420513868332, 0.013088412582874298, -0.022295191884040833, -0.05339934676885605, -0.05349378287792206, -0.022692017257213593, 0.020900212228298187, 0.027849972248077393, 0.009463347494602203, 0.016704320907592773, -0.0361417755484581, 0.027285151183605194, 0.03503917157649994, 0.002978190779685974, -0.01871999353170395, -0.02557668834924698, -0.017538517713546753, -0.02586039900779724, -0.03149092197418213, 0.04987068474292755, -0.04830598086118698, 0.03479427099227905, 0.044606730341911316, 0.0023941397666931152, -0.03163169324398041, -0.009418055415153503, -0.030287593603134155, 0.04992164671421051, 0.023745097219944, 0.0021575018763542175, 0.02016337960958481, -0.060115642845630646, -0.04293122887611389, -0.062080636620521545, 0.05593162029981613, 0.025075457990169525, -0.027102448046207428, -0.030248180031776428, -0.05786951631307602, -0.0011844262480735779, 0.016482174396514893, -0.05861488729715347, -0.03277616947889328, -0.051048025488853455, 0.053868189454078674, -0.055485956370830536, 0.0013754814863204956, 0.017286457121372223, 0.004260949790477753, -0.021732360124588013, 0.020438887178897858, -0.04117044806480408, 0.010211840271949768, 0.060681045055389404, -0.043258100748062134, -0.058563873171806335, -0.02568257600069046, -0.0592036098241806, -0.03095073252916336, 0.025242507457733154, 0.02755454182624817, -0.005093663930892944, 0.012936383485794067, 0.030984289944171906, -0.05346290022134781, 0.03769725561141968, -0.026140078902244568, 0.05247582495212555, -0.06068318337202072, 0.044348351657390594, -0.02079932391643524, 0.04522597789764404, -0.01343032717704773, -0.04580312967300415, 0.038926348090171814], [0.02650660276412964, -0.019619658589363098, -0.009817369282245636, -0.030021071434020996, 0.022345416247844696, 0.011028006672859192, -0.031973980367183685, -0.0074363574385643005, 0.05529482662677765, 0.06046716868877411, 0.03106793761253357, -0.018453016877174377, -0.05065212398767471, -0.016001105308532715, -0.057397179305553436, -0.06146838515996933, 0.0009091570973396301, -0.04446055740118027, -0.0382656455039978, 0.05636221915483475, 0.051677949726581573, 0.05487489700317383, -0.03944786638021469, -0.00625833123922348, 0.05689600855112076, 0.05588561296463013, 0.018565699458122253, -0.009944163262844086, -0.012540757656097412, 0.056954726576805115, -0.05279501527547836, 0.034445926547050476, -0.021297961473464966, 0.05972211807966232, 0.059737466275691986, 0.045033715665340424, -0.055823735892772675, -0.022209905087947845, 0.03961885720491409, -0.04345483332872391, 0.01677362620830536, -0.019815973937511444, -0.048973046243190765, -0.049717821180820465, -0.012023329734802246, 0.046992041170597076, 0.04572506248950958, -0.005556747317314148, -0.01882214844226837, 0.05529031902551651, 0.0395469069480896, 0.05474089831113815, -0.05769312381744385, -0.02200084924697876, 0.045645326375961304, 0.04958046227693558, 0.0066742002964019775, -0.008773230016231537, 0.027640052139759064, -0.022390738129615784, -0.038091257214546204, 0.021961994469165802, 0.024355337023735046, 0.02459927648305893, -0.00879427045583725, -0.055410414934158325, -0.026201963424682617, 0.04639320820569992, 0.053575702011585236, -0.027571149170398712, -0.06105867028236389, -0.020902641117572784, -0.014817744493484497, 0.004533536732196808, -0.015601545572280884, -0.011954613029956818, 0.022903889417648315, -0.003270484507083893, -0.030848875641822815, -0.01612703502178192, 0.03624372184276581, -0.010058850049972534, -0.04621249437332153, -0.055242352187633514, -0.03197745978832245, -0.02968527376651764, 0.02741129696369171, 0.047250762581825256, 0.017759382724761963, 0.033590130507946014, -0.04077700525522232, 0.0243312269449234, -0.04443581402301788, -0.04322300851345062, -0.04870547354221344, -0.0051426962018013, -0.05496063828468323, 0.022634580731391907, -0.003899715840816498, 0.0008648112416267395, 0.023840509355068207, -0.058480724692344666, 0.008237600326538086, -0.060657016932964325, -0.03221653401851654, 0.01253066211938858, 0.03355088829994202, -0.024532414972782135, 0.051311492919921875, 0.0030641332268714905, -0.0023799538612365723, -0.061559341847896576, 0.04921210557222366, -0.008326031267642975, 0.055860735476017, 0.021401003003120422, -0.035008691251277924, 0.03512456268072128, -0.05495612323284149, -0.029521547257900238, 0.04299835115671158, -0.027412399649620056, -0.028964266180992126, 0.02239058166742325, 0.02666662633419037, 0.06233811378479004, -0.04663778841495514, 0.05816511809825897, -0.0055548399686813354, 0.030496597290039062, -0.021514832973480225, -0.04586690664291382, -0.0339818075299263, 0.0022083446383476257, -0.05266229808330536, -0.0071359798312187195, -0.06041271984577179, -0.0491243377327919, -0.011199913918972015, -0.024113811552524567, 0.017504610121250153, 0.061150938272476196, -0.053765669465065, 0.028528451919555664, -0.053731098771095276, -0.058034397661685944, 0.009015634655952454, -0.012662984430789948, 0.008911974728107452, 0.05981312692165375, -0.03932933509349823, 0.024134285748004913, 0.027781233191490173, -0.04180406033992767, 0.05652296543121338, -0.026832059025764465, -6.297975778579712e-05, -0.024751342833042145, -0.03449803590774536, -0.0063425227999687195, 0.03049735724925995, 0.03205760568380356, 0.034227460622787476, -0.0206412672996521, -0.018374226987361908, 0.014913834631443024, -0.02541973441839218, -0.006641291081905365, 0.04985865205526352, 0.05854683369398117, -0.04816830903291702, 0.023170650005340576, 0.034308597445487976, 0.06063416600227356, -0.04330630600452423, -0.038836658000946045, -0.04545164108276367, 0.026219472289085388, -0.01269194483757019, -0.003853917121887207, -0.006854452192783356, 0.0052223801612854, 0.01563239097595215, 0.017428360879421234, -0.05364350974559784, -0.029031097888946533, -0.015896357595920563, -0.0507713258266449, 0.03621850162744522, 0.04060450196266174, -0.024485327303409576, -0.032839640974998474, 0.01401934027671814, -0.000684298574924469, 0.043557070195674896, -0.03436735272407532, 0.02530819922685623, 0.05525630712509155, -0.008874975144863129, -0.022536836564540863, -0.03967847675085068, 0.006337307393550873, 0.020215801894664764, -0.04140004515647888, 0.013001792132854462, 0.03921585530042648, -0.04097401350736618, 0.010106079280376434, -0.05723679065704346, 0.05249389261007309, 0.003673665225505829, 0.0008951202034950256, 0.044860564172267914, 0.016034483909606934, 0.03454319387674332, -0.0531858429312706, -0.026351235806941986, 0.011655561625957489, -0.003542885184288025, -0.02317681908607483, 0.037208400666713715, -0.011582031846046448, 0.0058809444308280945, -0.05171789228916168, 0.03301624953746796, 0.014585509896278381, -0.02487167716026306, 0.03837375342845917, -0.04464201629161835, 0.04889249801635742, -0.004732266068458557, 0.05068594217300415, -0.01229889690876007, 0.027564242482185364, -0.009235836565494537, 0.007741749286651611, 0.061756812036037445, -0.00028155744075775146, 0.025367602705955505, 0.021420329809188843, -0.023452430963516235, -0.005628131330013275, 0.05750162899494171, 0.022202618420124054, -0.03051808476448059, 0.003709264099597931, -0.03571711480617523, -0.03368700295686722, -0.04500950872898102, -0.0456756055355072, 0.05744244158267975, 0.03466363996267319, 0.015710368752479553, -0.02540251612663269, 0.014268018305301666, -0.018452845513820648], [0.015016615390777588, 0.06054718792438507, 0.052378326654434204, 0.006949901580810547, -0.0357254296541214, 0.008581966161727905, -0.02765052020549774, 0.03494331240653992, 0.00990074872970581, -0.048636674880981445, 0.048050880432128906, -0.02261405438184738, -0.03857440501451492, -0.010490752756595612, 0.05221564322710037, 0.030485011637210846, 0.00436314195394516, -0.005646921694278717, -0.04237542301416397, -0.0469936728477478, -0.03448066860437393, -0.007269963622093201, 0.014972113072872162, 0.02564164251089096, 0.05968642234802246, -0.022903449833393097, 0.013228267431259155, -0.03225824236869812, -0.0294916033744812, 0.022935599088668823, 0.004101850092411041, -0.026621922850608826, -0.021517910063266754, 0.014226950705051422, -0.04389103502035141, 0.017826184630393982, 0.029387854039669037, 0.05494246631860733, -0.0499727800488472, 0.0034502223134040833, 0.03673762083053589, 0.0008628517389297485, 9.36165452003479e-05, 0.014337539672851562, -0.05650327354669571, -0.04181267321109772, 0.021192163228988647, 0.006229497492313385, 0.06188994646072388, 0.018107354640960693, -0.007905609905719757, -0.002192281186580658, -0.002716347575187683, 0.0021171122789382935, 0.0413832813501358, 0.04930367320775986, -0.003939934074878693, 0.0030177459120750427, -0.022259995341300964, -0.05499257892370224, -0.04089868813753128, -0.03270716220140457, -0.028025001287460327, -0.02113153040409088, 0.035211242735385895, 0.0003632679581642151, 0.05457943677902222, -0.009135924279689789, 0.004586860537528992, -0.0252968892455101, -0.026026606559753418, 0.012464061379432678, 0.0398031622171402, 0.057166434824466705, 0.018687807023525238, -0.02278035879135132, -0.003769136965274811, 0.004246152937412262, -0.01542874425649643, 0.013584963977336884, -0.03713483363389969, 0.017463356256484985, -0.045534007251262665, -0.02966947853565216, -0.04485180974006653, 0.025700099766254425, 0.04741554707288742, 0.05141949653625488, -0.043741703033447266, 0.060709431767463684, -0.03798124939203262, 0.009684719145298004, 0.05888298898935318, -0.056843072175979614, 0.017895154654979706, -0.030198611319065094, -0.0401068776845932, 0.040779948234558105, -0.0395381897687912, 0.030636213719844818, -0.014370784163475037, -0.0359552800655365, 0.06062158942222595, 0.05538009852170944, -0.015597037971019745, 0.037701383233070374, -0.04478875547647476, 0.03646310418844223, 0.04247197508811951, -0.059690527617931366, 0.01270921528339386, -0.04429548233747482, 0.032208576798439026, -0.028766267001628876, 0.00334911048412323, 0.005403853952884674, -0.0051966458559036255, -0.059522680938243866, -0.05694792419672012, -0.001964680850505829, -0.031121619045734406, -0.04315562546253204, -0.01669454574584961, -0.02680245041847229, 0.03945568948984146, 0.033810392022132874, -0.05188663303852081, -0.023459814488887787, 